<?xml version="1.0"?>
<opencv_storage>
<opencv_ml_knn>
  <format>3</format>
  <is_classifier>0</is_classifier>
  <default_k>21</default_k>
  <samples type_id="opencv-matrix">
    <rows>64</rows>
    <cols>3</cols>
    <dt>f</dt>
    <data>
      2.21441001e-01 2.40773007e-01 2.40186993e-02 9.34958979e-02
      1.26016006e-01 2.43902002e-02 9.66183990e-02 1.69082001e-01
      1.93236992e-02 6.03290983e-02 1.80987000e-01 3.10785994e-02
      6.96931034e-02 2.16751993e-01 2.17390992e-02 1.76817000e-01
      1.66012004e-01 2.84871999e-02 9.52380970e-02 2.85714000e-01
      2.85714000e-01 3.36228013e-01 1.37716994e-01 2.72953007e-02
      2.94214994e-01 2.18181998e-01 6.11569993e-02 2.32483998e-01
      1.81529000e-01 5.73248006e-02 2.53968000e-01 2.16931000e-01
      8.46560970e-02 1.24311998e-01 1.70732006e-01 3.22581008e-02
      6.49351031e-02 1.86147004e-01 4.97835018e-02 9.18197036e-02
      1.16861001e-01 3.33889984e-02 3.46561015e-01 1.26984000e-01
      5.02646007e-02 3.19696993e-01 2.34847993e-01 3.18181999e-02
      1.68440007e-02 1.41844004e-01 2.65957005e-02 1.48238003e-01
      2.21138000e-01 1.11111002e-02 3.46583992e-01 1.93789005e-01
      3.35404016e-02 2.95857996e-01 2.24851996e-01 1.06509000e-01
      6.60099030e-01 4.43350002e-02 2.46305000e-02 4.16667014e-01
      1.66666999e-01 0. 2.05339002e-03 1.83778003e-01 2.56673992e-02
      4.52488987e-03 1.58371001e-01 5.42985983e-02 3.18078011e-01
      1.94508001e-01 7.55148977e-02 1.72232002e-01 1.82777002e-01
      2.98769996e-02 2.65906993e-02 1.58593997e-01 2.56409999e-02
      8.57143030e-02 1.57142997e-01 9.28571001e-02 3.49999994e-01
      5.00000007e-02 0. 4.85148996e-01 9.70297009e-02 2.77228002e-02
      3.82978991e-02 1.70212999e-01 6.80850968e-02 2.47002006e-01
      3.89205992e-01 3.08109999e-01 3.34028989e-01 1.46137998e-01
      5.01043983e-02 1.05262995e+00 0. 0. 5.93750000e-01 1.87500000e-01
      0. 2.20407993e-01 1.59183994e-01 5.71428984e-02 4.32570018e-02
      6.46309972e-01 6.00508988e-01 1.73310004e-02 2.54765987e-01
      1.57711998e-01 8.41327980e-02 2.39851996e-01 8.11808035e-02
      2.57484000e-02 1.77936003e-01 2.55389996e-02 1.35783004e-02
      5.56708992e-01 4.17732000e-01 5.59034012e-02 2.65206009e-01
      4.78532985e-02 2.73972992e-02 3.33332986e-01 2.00912997e-01
      1.26315996e-01 4.10526007e-01 2.21053004e-01 7.75193982e-03
      3.64340991e-01 2.48062000e-01 7.93650970e-02 2.75132000e-01
      1.11111000e-01 3.25733004e-03 8.50162983e-01 8.11074972e-01
      2.41546007e-03 1.76329002e-01 3.86473015e-02 4.70218994e-03
      3.48746002e-01 2.35110000e-01 3.16868983e-02 2.42311001e-01
      7.36252964e-02 5.13618998e-02 2.14785993e-01 6.92607015e-02
      1.77305005e-03 2.74823010e-01 9.39716026e-02 1.89188998e-02
      3.74323994e-01 2.68918991e-01 9.49367043e-03 6.70885980e-01
      6.04430020e-01 1.43472000e-03 4.17504013e-01 2.29554996e-01
      3.22966985e-02 5.94497979e-01 4.55742002e-01 3.86266001e-02
      2.40343004e-01 1.50215000e-01 8.71934965e-02 2.05722004e-01
      4.35966998e-02 7.17113987e-02 3.36120009e-01 1.37263998e-01
      9.39086005e-02 1.85278997e-01 5.83756007e-02 2.81080995e-02
      2.70269990e-01 1.29730001e-01 6.23305999e-02 3.57724011e-01
      3.03523004e-01 0. 8.21577013e-01 8.13278019e-01 7.75862020e-03
      3.52586001e-01 2.50000000e-01</data></samples>
  <responses type_id="opencv-matrix">
    <rows>64</rows>
    <cols>1</cols>
    <dt>f</dt>
    <data>
      0. 0. 0. 0. 0. 0. 0. 0. 0. 0. 0. 0. 0. 0. 0. 0. 0. 0. 0. 0. 0. 0.
      0. 0. 0. 0. 0. 0. 0. 0. 0. 0. 0. 0. 0. 0. 1. 1. 1. 1. 1. 1. 1. 1.
      1. 1. 1. 1. 1. 1. 1. 1. 1. 1. 1. 1. 1. 1. 1. 1. 1. 1. 1. 1.</data></responses></opencv_ml_knn>
</opencv_storage>
