<?xml version="1.0"?>
<opencv_storage>
<opencv_ml_nbayes>
  <format>3</format>
  <var_count>4</var_count>
  <var_all>4</var_all>
  <cls_labels type_id="opencv-matrix">
    <rows>3</rows>
    <cols>1</cols>
    <dt>i</dt>
    <data>
      1 2 3</data></cls_labels>
  <count>
    <_ type_id="opencv-matrix">
      <rows>1</rows>
      <cols>4</cols>
      <dt>i</dt>
      <data>
        5 5 5 5</data></_>
    <_ type_id="opencv-matrix">
      <rows>1</rows>
      <cols>4</cols>
      <dt>i</dt>
      <data>
        47 47 47 47</data></_>
    <_ type_id="opencv-matrix">
      <rows>1</rows>
      <cols>4</cols>
      <dt>i</dt>
      <data>
        22 22 22 22</data></_></count>
  <sum>
    <_ type_id="opencv-matrix">
      <rows>1</rows>
      <cols>4</cols>
      <dt>d</dt>
      <data>
        2.9501076936721802e+00 2.9876452311873436e-01
        1.6770263575017452e-01 0.</data></_>
    <_ type_id="opencv-matrix">
      <rows>1</rows>
      <cols>4</cols>
      <dt>d</dt>
      <data>
        6.6683865115046501e+00 7.7864632830023766e+00
        4.5899038072675467e+00 0.</data></_>
    <_ type_id="opencv-matrix">
      <rows>1</rows>
      <cols>4</cols>
      <dt>d</dt>
      <data>
        3.2460595965385437e+00 3.4187046475708485e+00
        2.1294525852426887e+00 0.</data></_></sum>
  <productsum>
    <_ type_id="opencv-matrix">
      <rows>4</rows>
      <cols>4</cols>
      <dt>d</dt>
      <data>
        2.2879873812088576e+00 1.3231046282558900e-01
        7.7650528550648024e-02 0. 1.3231046282558900e-01
        2.2747237351653272e-02 1.2759382347934990e-02 0.
        7.7650528550648024e-02 1.2759382347934990e-02
        7.2642418270759714e-03 0. 0. 0. 0. 0.</data></_>
    <_ type_id="opencv-matrix">
      <rows>4</rows>
      <cols>4</cols>
      <dt>d</dt>
      <data>
        1.2014308810588399e+00 1.0784924977676351e+00
        6.8839362809608373e-01 0. 1.0784924977676351e+00
        1.4225380931808884e+00 8.5887457789467980e-01 0.
        6.8839362809608373e-01 8.5887457789467980e-01
        5.6589560437703090e-01 0. 0. 0. 0. 0.</data></_>
    <_ type_id="opencv-matrix">
      <rows>4</rows>
      <cols>4</cols>
      <dt>d</dt>
      <data>
        5.9620952559469398e-01 4.4671494260641847e-01
        2.9976292384638059e-01 0. 4.4671494260641847e-01
        6.4954812034746134e-01 4.2034599203271611e-01 0.
        2.9976292384638059e-01 4.2034599203271611e-01
        2.9149697016259901e-01 0. 0. 0. 0. 0.</data></_></productsum>
  <avg>
    <_ type_id="opencv-matrix">
      <rows>1</rows>
      <cols>4</cols>
      <dt>d</dt>
      <data>
        5.9002153873443608e-01 5.9752904623746869e-02
        3.3540527150034902e-02 0.</data></_>
    <_ type_id="opencv-matrix">
      <rows>1</rows>
      <cols>4</cols>
      <dt>d</dt>
      <data>
        1.4188056407456703e-01 1.6566943155324204e-01
        9.7657527814203116e-02 0.</data></_>
    <_ type_id="opencv-matrix">
      <rows>1</rows>
      <cols>4</cols>
      <dt>d</dt>
      <data>
        1.4754816347902472e-01 1.5539566579867492e-01
        9.6793299329213114e-02 0.</data></_></avg>
  <inv_eigen_values>
    <_ type_id="opencv-matrix">
      <rows>4</rows>
      <cols>1</cols>
      <dt>d</dt>
      <data>
        7.2498303567014801e+00 1.8733887540395854e+03
        1.7636330812849602e+05 8388608.</data></_>
    <_ type_id="opencv-matrix">
      <rows>4</rows>
      <cols>1</cols>
      <dt>d</dt>
      <data>
        1.7375486964617645e+02 2.0627153209276270e+02
        2.5864883593078425e+03 8388608.</data></_>
    <_ type_id="opencv-matrix">
      <rows>4</rows>
      <cols>1</cols>
      <dt>d</dt>
      <data>
        9.4913337198629719e+01 2.1966957899262570e+02
        5.1429452512849084e+03 8388608.</data></_></inv_eigen_values>
  <cov_rotate_mats>
    <_ type_id="opencv-matrix">
      <rows>4</rows>
      <cols>4</cols>
      <dt>d</dt>
      <data>
        9.9601092191916696e-01 -8.0276142134617312e-02
        -3.8961319558169775e-02 0. 8.7398899486438614e-02
        7.8961491246354976e-01 6.0734645992525560e-01 0.
        -1.7990991809527849e-02 -6.0832888392641959e-01
        7.9348112340152499e-01 0. 1.1555579666323421e-32
        -2.4651903288156630e-32 0. -1.</data></_>
    <_ type_id="opencv-matrix">
      <rows>4</rows>
      <cols>4</cols>
      <dt>d</dt>
      <data>
        9.7242632029016229e-01 -2.0069577122476610e-02
        2.3234513913800697e-01 0. -1.3973024650139113e-01
        7.4751860373376178e-01 6.4937769848108251e-01 0.
        -1.8671504979405201e-01 -6.6393760937760726e-01
        7.2410243821875953e-01 0. 0. 0. 0. -1.</data></_>
    <_ type_id="opencv-matrix">
      <rows>4</rows>
      <cols>4</cols>
      <dt>d</dt>
      <data>
        -4.6851772765503380e-01 7.1425970803099270e-01
        5.1992711831221561e-01 0. -8.4604181625842556e-01
        -1.9329892835556345e-01 -4.9683877610220334e-01 0.
        -2.5437056436448796e-01 -6.7265785788918853e-01
        6.9485755533405547e-01 0. 0. -1.2325951644078312e-32 0. -1.</data></_></cov_rotate_mats>
  <c type_id="opencv-matrix">
    <rows>1</rows>
    <cols>3</cols>
    <dt>d</dt>
    <data>
      -3.7539168857297156e+01 -3.4287280470338565e+01
      -3.4432855092230739e+01</data></c></opencv_ml_nbayes>
</opencv_storage>
