<?xml version="1.0"?>
<opencv_storage>
<opencv_ml_knn>
  <format>3</format>
  <is_classifier>0</is_classifier>
  <default_k>21</default_k>
  <samples type_id="opencv-matrix">
    <rows>74</rows>
    <cols>4</cols>
    <dt>f</dt>
    <data>
      7.83555806e-02 1.19029731e-01 1.44763254e-02 0. 0. 1.93933606e-01
      1.05549157e-01 0. 1.08537197e-01 1.18038937e-01 1.05502389e-01 0.
      7.50815347e-02 1.64040565e-01 8.82758051e-02 0. 3.85805592e-02
      1.76701680e-01 6.40086904e-02 0. 9.20864642e-02 1.92428544e-01
      1.29266784e-01 0. 1.68604583e-01 1.28227293e-01 1.05323851e-01 0.
      1.01884633e-01 1.43622279e-01 5.90019897e-02 0. 2.56439745e-01
      7.35612959e-02 3.27296257e-02 0. 9.39478353e-02 3.48650724e-01
      2.60277718e-01 0. 1.14229649e-01 2.52918750e-01 1.32567510e-01 0.
      1.22002497e-01 1.05352864e-01 1.87184457e-02 0. 1.24145731e-01
      3.05743158e-01 2.10463077e-01 0. 1.65803134e-01 1.57929420e-01
      1.25844896e-01 0. 1.20688438e-01 1.07106447e-01 6.24548122e-02 0.
      1.43137097e-01 1.28911823e-01 7.81607106e-02 0. 1.26562506e-01
      1.77059054e-01 1.27391115e-01 0. 2.00323775e-01 9.89068970e-02
      5.96839935e-02 0. 7.52499998e-02 1.91607103e-01 4.54316102e-02 0.
      1.67380214e-01 1.11477487e-01 4.63383384e-02 0. 1.42007157e-01
      2.93461621e-01 2.03224480e-01 0. 8.37707520e-01 6.76054060e-02
      4.27781232e-02 0. 9.43356901e-02 1.48275077e-01 6.39546663e-02 0.
      1.21824242e-01 1.33736417e-01 5.68794124e-02 0. 9.10023451e-02
      1.90299630e-01 1.18108593e-01 0. 1.29840583e-01 1.34535372e-01
      7.95401931e-02 0. 1.65063307e-01 1.31244048e-01 1.08976483e-01 0.
      1.73677266e-01 1.16233461e-01 8.07377398e-02 0. 2.02515453e-01
      1.18083730e-01 7.60657713e-02 0. 1.19043119e-01 1.35253713e-01
      1.13007590e-01 0. 1.72808290e-01 2.29774997e-01 1.29051015e-01 0.
      2.03206375e-01 5.13597466e-02 6.81599323e-03 0. 0. 2.81658798e-01
      1.97673485e-01 0. 1.12887420e-01 1.82006717e-01 1.27954796e-01 0.
      2.15831518e-01 1.32111132e-01 9.53356847e-02 0. 8.67552534e-02
      1.55084714e-01 7.85462782e-02 0. 8.27621520e-02 1.61052942e-01
      9.05749351e-02 0. 7.96047524e-02 1.60664022e-01 8.50326344e-02 0.
      2.12047547e-01 1.42161846e-01 1.25844896e-01 0. 1.53899997e-01
      9.21920687e-02 1.69411562e-02 0. 9.50249583e-02 1.10751532e-01
      7.66714104e-03 0. 1.07083000e-01 1.83672801e-01 1.18811890e-01 0.
      1.93428740e-01 2.94465780e-01 2.31450379e-01 0. 8.66157115e-02
      1.90097451e-01 1.13185480e-01 0. 3.47818762e-01 1.69711575e-01
      1.24300003e-01 0. 3.47818762e-01 1.69711575e-01 1.24300003e-01 0.
      8.54947209e-01 2.21633408e-02 1.16915144e-02 0. 1.48624003e-01
      1.25473693e-01 7.47246742e-02 0. 5.23044765e-02 1.89095929e-01
      1.27357334e-01 0. 1.31016448e-01 2.44579360e-01 1.26941115e-01 0.
      1.02539062e-01 1.04172163e-01 2.12855097e-02 0. 2.02575386e-01
      2.77923495e-01 2.04213098e-01 0. 1.28998637e-01 1.31817043e-01
      6.91275895e-02 0. 3.87013629e-02 1.75532639e-01 6.22525252e-02 0.
      3.87013629e-02 1.75532639e-01 6.22525252e-02 0. 1.41572937e-01
      2.42067248e-01 1.31160915e-01 0. 1.62505254e-01 8.47499967e-02
      1.04253273e-02 0. 1.06425233e-01 1.45490065e-01 7.91949108e-02 0.
      2.86724865e-01 1.08674988e-01 8.30289796e-02 0. 2.78165340e-01
      1.12439089e-01 1.12066418e-01 0. 2.78165340e-01 1.12439089e-01
      1.12066418e-01 0. 8.80324781e-01 2.83280332e-02 1.80485602e-02 0.
      1.04024999e-01 1.73600212e-01 4.18960787e-02 0. 1.04024999e-01
      1.73600212e-01 4.18960787e-02 0. 1.08286910e-01 1.62386149e-01
      1.25932693e-01 0. 1.10279210e-01 1.27791196e-01 1.03887700e-01 0.
      2.86654502e-01 1.11650772e-01 9.73826274e-02 0. 2.64827877e-01
      9.60722193e-02 7.60657713e-02 0. 1.65474102e-01 1.11800522e-01
      5.00063226e-02 0. 1.11268736e-01 1.39121696e-01 5.90019897e-02 0.
      1.50121555e-01 1.19849980e-01 5.87568954e-02 0. 2.50562370e-01
      1.16236717e-01 8.51009712e-02 0. 2.56889492e-01 1.17728457e-01
      1.17726631e-01 0. 1.72196254e-01 3.03161681e-01 2.35342190e-01 0.</data></samples>
  <responses type_id="opencv-matrix">
    <rows>74</rows>
    <cols>1</cols>
    <dt>f</dt>
    <data>
      2. 2. 2. 2. 3. 3. 2. 2. 1. 3. 2. 2. 3. 2. 1. 3. 2. 3. 2. 3. 3. 1.
      2. 2. 2. 2. 2. 3. 3. 3. 2. 3. 2. 2. 2. 2. 2. 2. 2. 3. 2. 2. 2. 2.
      2. 2. 1. 3. 3. 2. 2. 2. 2. 3. 3. 2. 3. 2. 2. 3. 3. 1. 2. 2. 3. 2.
      3. 2. 2. 2. 2. 2. 2. 2.</data></responses></opencv_ml_knn>
</opencv_storage>
