<?xml version="1.0"?>
<opencv_storage>
<opencv_ml_nbayes>
  <format>3</format>
  <var_count>51</var_count>
  <var_all>51</var_all>
  <cls_labels type_id="opencv-matrix">
    <rows>2</rows>
    <cols>1</cols>
    <dt>i</dt>
    <data>
      0 1</data></cls_labels>
  <count>
    <_ type_id="opencv-matrix">
      <rows>1</rows>
      <cols>51</cols>
      <dt>i</dt>
      <data>
        46 46 46 46 46 46 46 46 46 46 46 46 46 46 46 46 46 46 46 46 46
        46 46 46 46 46 46 46 46 46 46 46 46 46 46 46 46 46 46 46 46 46
        46 46 46 46 46 46 46 46 46</data></_>
    <_ type_id="opencv-matrix">
      <rows>1</rows>
      <cols>51</cols>
      <dt>i</dt>
      <data>
        97 97 97 97 97 97 97 97 97 97 97 97 97 97 97 97 97 97 97 97 97
        97 97 97 97 97 97 97 97 97 97 97 97 97 97 97 97 97 97 97 97 97
        97 97 97 97 97 97 97 97 97</data></_></count>
  <sum>
    <_ type_id="opencv-matrix">
      <rows>1</rows>
      <cols>51</cols>
      <dt>d</dt>
      <data>
        1.9841237045288086e+04 -1.5217086585998535e+04
        -1.0137481116294861e+04 8.5751964473724365e+03
        2.7107068395614624e+02 -1.7223762016296387e+03
        4.1147768993377686e+03 -1.4106058444976807e+03
        2.1894238138198853e+03 -2.7731954733133316e+03
        2.1633346748352051e+03 5.4746802806854248e+03
        -2.7943387639522552e+02 2.1626599884033203e+03
        -1.7809177131652832e+03 1.5152662248611450e+03
        -1.1185484302043915e+03 -3.5594959551095963e+03
        -3.5086525014638901e+03 -1.9200380005836487e+03
        -2.6242985305786133e+03 2.9220591801404953e+02
        -3.3994706687927246e+03 -1.1315550289154053e+03
        4.3752388911247253e+03 2.3914329765737057e+03
        2.4536168369054794e+03 -1.8629048285484314e+03
        -3.2095158457756042e+03 2.9372632942199707e+03
        5.9692223215103149e+02 1.5423332390189171e+02
        3.9063488781452179e+01 3.0524972020387650e+03
        3.8942373024523258e+03 -1.9736381384134293e+03
        -3.7221945858001709e+03 8.6031029701232910e+01
        -2.0884565095901489e+03 2.0776147060394287e+03
        4.2922338652610779e+02 4.7726842451095581e+02
        -1.6621152036190033e+03 -3.3903153419494629e+01
        -2.4738978910446167e+03 -7.0344653129577637e+00
        -1.0858705949783325e+03 -1.3289223265647888e+02
        -2.4686407604217529e+03 1.0773411350250244e+03
        3.7396969914436340e+01</data></_>
    <_ type_id="opencv-matrix">
      <rows>1</rows>
      <cols>51</cols>
      <dt>d</dt>
      <data>
        -1.9841222274780273e+04 1.5217083774566650e+04
        1.0137482309341431e+04 -8.5751995925903320e+03
        -2.7107122814655304e+02 1.7223740520477295e+03
        -4.1147760009765625e+03 1.4106062054298818e+03
        -2.1894236222505569e+03 2.7731950082778931e+03
        -2.1633345947265625e+03 -5.4746797485351562e+03
        2.7943337154388428e+02 -2.1626594004631042e+03
        1.7809179999828339e+03 -1.5152665405273438e+03
        1.1185479402542114e+03 3.5594960024356842e+03
        3.5086526074409485e+03 1.9200387258529663e+03
        2.6242978141903877e+03 -2.9220569396018982e+02
        3.3994706711769104e+03 1.1315549087524414e+03
        -4.3752390509843826e+03 -2.3914334077835083e+03
        -2.4536173887252808e+03 1.8629042806625366e+03
        3.2095154724121094e+03 -2.9372633728981018e+03
        -5.9692206346988678e+02 -1.5423338985443115e+02
        -3.9063605278730392e+01 -3.0524977426528931e+03
        -3.8942376205921173e+03 1.9736378662586212e+03
        3.7221945085525513e+03 -8.6030648827552795e+01
        2.0884562563896179e+03 -2.0776150381565094e+03
        -4.2922304344177246e+02 -4.7726792240142822e+02
        1.6621152140498161e+03 3.3903574943542480e+01
        2.4738979494571686e+03 7.0341126918792725e+00
        1.0858710059896111e+03 1.3289211639761925e+02
        2.4686406869888306e+03 -1.0773410196304321e+03
        -3.7396730184555054e+01</data></_></sum>
  <productsum>
    <_ type_id="opencv-matrix">
      <rows>51</rows>
      <cols>51</cols>
      <dt>d</dt>
      <data>
        8.4086510990485144e+08 -2.8778983989084341e+07
        1.9301834940125637e+07 -3.1769767437290806e+07
        3.8914313447959796e+07 -1.9877647319456127e+07
        -9.1479814107785001e+06 2.4073731726210743e+07
        6.9583232001600340e+06 1.7437384588811319e+07
        -4.0023955711568855e+06 -6.4123389963064762e+06
        -9.9158181760529615e+06 -2.3213802364159886e+07
        -1.5636402135552308e+06 1.5210008487330463e+07
        1.3581798228281248e+07 -3.1193163259032550e+06
        -2.1843812954048812e+05 -1.6381750304259513e+07
        4.0470936660643797e+06 9.0112403242353490e+05
        -1.0012625708401222e+06 -5.7864344075361481e+06
        8.6857309275688585e+06 2.4683212014315967e+06
        1.0172869643955411e+07 -1.2731647930939857e+07
        -4.6619168675052226e+06 4.1163038672536742e+06
        3.5102608809988666e+06 5.1710393644833844e+05
        1.0374724842867255e+07 1.0437441137433242e+07
        -2.9283415589777511e+06 1.7135154322073469e+05
        -9.1850548565536644e+05 -6.3846814978256049e+06
        5.0166789147511525e+06 2.0772798409044009e+07
        2.2367800294085061e+06 1.3127738283424363e+07
        3.3915827856539786e+06 -1.8902462305875900e+06
        -1.5092834116615862e+07 -4.3097199742092192e+05
        -2.7297834484786522e+06 4.5431116255066656e+06
        1.4693744373187390e+06 4.2431283791974289e+06
        -3.8265796289617438e+06 -2.8778983989084341e+07
        2.0489964432524371e+08 7.1271168718104418e+06
        -1.5235785571379550e+07 -1.7193654193893597e+07
        -6.3350141233857684e+06 7.4446479101251625e+05
        -5.9092964953081235e+06 9.7106835453841407e+06
        -3.8047892650202410e+06 1.8839949086096771e+06
        4.2510236054477375e+06 1.5071063855973298e+07
        -3.4051982268782142e+06 2.6056688356428128e+06
        -3.7896471578897443e+05 -2.3598654407319846e+06
        -6.2277261476705107e+05 -2.2735635211579548e+06
        -1.2160437122470001e+06 8.7003391420127135e+06
        -6.6692081226608763e+06 8.0097319643651322e+06
        -2.7687830698192734e+06 -5.9476499931228207e+06
        7.3684105977282347e+05 7.7559474355139239e+06
        -6.9455656120624654e+06 5.1888397558508227e+06
        2.2840129151386470e+06 -7.5577518953761719e+06
        -4.7686557561679333e+06 -5.0485889242525557e+06
        -1.1440346990916375e+07 -5.1177113180399500e+06
        -1.5064183331456780e+05 6.4968247293466153e+06
        -5.3387608899102984e+06 4.0842802278111316e+05
        3.5547100464434102e+06 4.2727837390619963e+06
        1.4094994002444558e+06 -3.8239517852120479e+06
        2.4236673844827281e+05 1.4898904909985727e+06
        -4.3837736503880797e+06 3.5409405071806344e+06
        1.5170686901311080e+06 1.9302831089085015e+06
        6.7862590740570780e+06 9.0670145334103238e+05
        1.9301834940125637e+07 7.1271168718104418e+06
        5.8018619094479658e+07 -1.7623909972314574e+07
        -6.4731165902134497e+05 8.7108750248757936e+06
        1.2738875455004400e+07 3.6097978132842146e+06
        9.4118626303885430e+06 -6.6388227806075457e+06
        -4.0083962320735492e+05 -1.3600832100653794e+07
        3.3736359931793823e+06 -5.8437373637344362e+06
        -5.9286693063503345e+06 -1.5001340506683756e+05
        3.5477198735872149e+06 2.3481480716680344e+06
        -8.6561227211261280e+06 2.9326604378197389e+05
        6.0034224069568934e+06 3.8580517122798106e+06
        -2.2786716571009904e+05 -1.8649622009017575e+06
        -4.9092365635180064e+06 3.2715927436520765e+06
        3.8635260449426626e+06 -6.4325461745123402e+05
        -1.9636256371800159e+06 -5.2880026107691582e+06
        2.3991544076541360e+06 9.0526569302433124e+05
        -4.3860581309754960e+06 -3.6834118001205353e+06
        1.9547556003475471e+06 -2.1908021806072257e+05
        1.9781149795070980e+06 4.0869151299474982e+05
        6.3880066974623129e+04 -1.8684892590528610e+06
        2.5465330789905684e+06 2.9799872944553783e+06
        1.4744654345987304e+06 -7.8468722788727074e+05
        8.6203147095469921e+05 1.6638000242568387e+06
        7.3205833469183301e+05 -6.4367069591765804e+05
        3.2707204084508121e+03 1.0767090779495593e+06
        -1.4972834085631974e+06 -3.1769767437290806e+07
        -1.5235785571379550e+07 -1.7623909972314574e+07
        6.7788987748622850e+07 -2.8924362453641344e+07
        1.8196566637568614e+06 7.2143982609245777e+06
        -7.4031743839736925e+06 6.6146832564519197e+06
        2.6375513753852583e+06 5.0563189355792738e+06
        1.5052124576357218e+07 -1.0934591651190583e+07
        3.1807695253933202e+06 2.3920497367974231e+05
        -4.3765248849350242e+06 1.3293614990000473e+06
        3.5685077303849505e+06 -4.7037535883934014e+06
        -8.7246881718662046e+06 -2.2494711915330826e+06
        -1.7158640008481527e+06 -3.4063855781922592e+06
        5.5593554016110599e+06 2.0565901813161597e+06
        -2.2460395605276432e+06 -1.5631136144432805e+06
        -5.6727519437958230e+05 -1.2566006449617753e+06
        -1.5123971277362304e+06 4.2805715522068720e+06
        -2.8746207582422947e+06 2.4769283878858224e+06
        -2.6674310444120737e+05 1.5503878009864381e+06
        -1.9063028368044910e+06 -7.0080898769390341e+06
        2.3511700753865698e+06 3.3744168587132031e+06
        -1.2646746799946381e+06 -3.5140820446009459e+06
        1.8589382345223650e+06 -1.6677033523174040e+06
        1.2875872986376996e+06 -1.4947680449989531e+06
        1.5904036810884462e+06 -2.5163793488209741e+06
        -3.5155701061977423e+04 -1.5692479122992167e+06
        -5.5320429069444146e+06 -3.0409693071197835e+05
        3.8914313447959796e+07 -1.7193654193893597e+07
        -6.4731165902134497e+05 -2.8924362453641344e+07
        6.7151831196414232e+07 1.7695956576476175e+07
        -1.1768319572359204e+07 8.4910621489558946e+06
        4.5939182987601403e+06 -9.4176745977510419e+05
        -8.4993212072090879e+06 -9.7812060846451018e+06
        7.3207456824544184e+06 -3.7874699662058274e+06
        -7.3294805760659603e+05 6.1111405542747909e+05
        1.8098150350197414e+06 -8.9083180318494141e+06
        4.1753248769046115e+06 -6.6029976540713757e+06
        5.6928602384465691e+06 2.5183459561926159e+06
        8.0509974113475601e+05 7.3886195233357605e+04
        1.1532816192015759e+06 -1.9855916712013138e+06
        -2.5518905004825350e+06 1.4051218622893868e+06
        -9.2356864042506274e+05 -2.1702716184918438e+06
        -4.4032172704790179e+06 1.5679969836150189e+06
        4.1148343792733119e+05 3.0619785795414355e+06
        -4.0658711994031398e+05 -8.1686868200391042e+05
        -2.9489439506263491e+06 -2.1045345359921912e+06
        3.8928617328045424e+04 -1.7669532055072812e+06
        1.3291917251034207e+06 -2.2937633266583188e+06
        7.5383137740361108e+05 -2.8875095338978199e+05
        -4.5744431470384682e+06 -5.4669858292479217e+06
        -2.1676705854793838e+06 -1.7834785367494430e+06
        -1.8934963753918791e+05 9.7888218523332616e+05
        -4.7137707124641072e+05 -1.9877647319456127e+07
        -6.3350141233857684e+06 8.7108750248757936e+06
        1.8196566637568614e+06 1.7695956576476175e+07
        4.2644269342093468e+07 7.4940596150460765e+06
        4.2455999518093420e+06 -8.6713777967643905e+06
        4.6211779289983371e+06 -6.5580159690147843e+06
        -2.7032765281204181e+06 -1.1736432432118864e+06
        -2.7959577308762781e+06 6.6572334841902647e+05
        2.2155677204266330e+05 -2.3312443805910889e+06
        3.5074667953349734e+06 -2.6205025759580890e+06
        -3.7634929014232820e+06 2.9380492039998621e+05
        -2.1463970583444899e+06 3.8832761192051531e+06
        3.3141606721350914e+06 1.8764362496338850e+06
        4.3650587351048365e+04 2.6522909129760927e+06
        1.0795417553087515e+06 -4.6595797509192079e+06
        -4.4143758824756760e+06 5.8055009636523994e+05
        -8.0985635907194158e+05 1.4021150036024475e+06
        -1.8160695820414769e+06 3.4686605038110353e+05
        -2.4871609157312755e+05 -2.5375184726459025e+06
        8.9391248388421815e+05 -2.4697663739260752e+06
        -5.3454945841735881e+05 3.6161706816515331e+06
        -1.5233284104468727e+06 7.4412943732909719e+05
        2.6990359067103108e+06 -3.3599373911097425e+05
        6.7071670002420025e+05 2.5743896530674514e+05
        1.8831943916983681e+06 -1.0664319193237252e+06
        -1.6184286794920703e+06 1.7676360809374342e+06
        -9.1479814107785001e+06 7.4446479101251625e+05
        1.2738875455004400e+07 7.2143982609245777e+06
        -1.1768319572359204e+07 7.4940596150460765e+06
        3.2972556156749807e+07 4.4145987200349476e+05
        -5.7950004964275034e+06 -2.4466286346816011e+06
        1.0875803556569575e+06 -5.9873874881947124e+06
        -9.0817603930778839e+06 5.6487183204179222e+05
        -4.2700861660336368e+06 1.4101345441618292e+06
        2.6826461803872096e+06 6.0403045472388491e+06
        -2.7820785468542287e+06 2.5434454946316853e+06
        1.8770467518749489e+06 9.6350298041773844e+04
        -1.9415631953627232e+06 9.4611580053105718e+04
        2.6144724255557307e+06 5.8449847187254811e+04
        2.0241652588241682e+06 -2.5534719227896980e+06
        -8.0955307146437466e+05 -2.8628422341901590e+06
        1.2238610564375538e+06 -8.3493103338021156e+05
        1.8524603749241207e+06 -4.3418784217453329e+05
        -4.6519104379333090e+04 3.6705667018447164e+05
        -2.9852695542410007e+06 1.6813306088340792e+06
        -1.6224519502047494e+06 -5.3605174960507150e+05
        1.9977762647584556e+06 1.3816921197422196e+06
        -2.5866895865080585e+06 2.0896940369727090e+06
        -1.6461083951383850e+06 9.4010239162697969e+05
        1.8545398242605748e+06 1.3575041202644743e+06
        -1.1067292845374024e+06 -2.0016012247095420e+06
        1.0029200431870810e+06 2.4073731726210743e+07
        -5.9092964953081235e+06 3.6097978132842146e+06
        -7.4031743839736925e+06 8.4910621489558946e+06
        4.2455999518093420e+06 4.4145987200349476e+05
        1.5164039748876033e+07 -3.8674587430681693e+06
        3.0683032258388633e+06 3.6854567001690976e+06
        -4.0892280338162910e+06 1.1064423988816447e+06
        -1.4061867090882412e+06 -4.6335657345302040e+06
        1.2822412199154771e+06 1.4274974191700253e+06
        1.7530712799026757e+06 5.3620782660358632e+05
        6.6678901089815469e+05 2.2436305999995759e+06
        -8.7202192816900392e+05 -4.4765592225634417e+05
        1.9602931115339283e+05 -1.0655075900064115e+06
        8.1364599246628245e+05 -8.6196442931439611e+05
        -1.8758950913764595e+05 4.8219930200708332e+05
        -1.5472874429811764e+05 -2.0946484812714620e+06
        3.3801782389799377e+05 2.1066386591939707e+06
        1.0614646391521671e+06 -1.5110791946197357e+06
        -1.7360894312481512e+05 -1.4454895560256022e+06
        -1.1430802004556181e+06 -1.9352512722732204e+06
        4.6410974939204904e+05 -1.2346574640652989e+06
        8.0727258362457890e+05 2.7397660152653698e+06
        1.8756051619944675e+06 -1.3922965652020669e+06
        -7.4601892053884629e+05 4.5834328135522845e+05
        1.0725607370080194e+06 -8.0906270275048516e+05
        -4.2785134742352145e+05 -5.3524716166145401e+04
        6.9583232001600340e+06 9.7106835453841407e+06
        9.4118626303885430e+06 6.6146832564519197e+06
        4.5939182987601403e+06 -8.6713777967643905e+06
        -5.7950004964275034e+06 -3.8674587430681693e+06
        3.3396246974809084e+07 -6.6440228765305197e+06
        -2.8579086553921984e+06 2.8305746936873533e+06
        6.2348476829588963e+06 -2.8321956711351397e+06
        7.7384527344631369e+05 -1.5858344622333194e+06
        4.8211635271549840e+06 5.7166585127791890e+05
        1.5402512855139594e+06 -2.4705649021952306e+06
        2.2200178719626199e+06 -1.0222030546623267e+06
        -4.4749584144324949e+06 6.6176786316992133e+05
        -4.9505721096672285e+06 -8.9925922523473529e+05
        -1.6674557788301280e+06 1.1887743032657774e+04
        2.0942538124798138e+06 -5.9326598330775136e+05
        1.1684498832892226e+06 1.4153018837093469e+06
        -3.3914634848341336e+06 -1.1920361034625915e+06
        2.3287155910022045e+06 -9.7529090370605863e+05
        2.6637592247569817e+05 -8.5222662941553770e+05
        -2.1281205332534667e+05 -1.7250435944593265e+06
        -2.1383718621842237e+06 2.9663258243983532e+06
        1.8410652602139178e+06 -3.4553112335238992e+06
        -2.8558616557651944e+06 -1.0480468088079415e+06
        -1.5392013636282049e+06 -1.8124632919466104e+06
        -2.3474930641113510e+06 2.0242718130717159e+05
        2.3366935602833768e+06 1.7437384588811319e+07
        -3.8047892650202410e+06 -6.6388227806075457e+06
        2.6375513753852583e+06 -9.4176745977510419e+05
        4.6211779289983371e+06 -2.4466286346816011e+06
        3.0683032258388633e+06 -6.6440228765305197e+06
        2.7582641377108838e+07 4.5028023297016956e+06
        6.7176817557181623e+06 -6.3043769146509534e+06
        7.0139235576232616e+06 9.2010749134074198e+05
        4.5250740304416418e+06 -5.9338939729052912e+06
        -2.5047801950563188e+06 3.4601028194525414e+06
        -1.6898522042973021e+06 5.8169456780950795e+05
        -1.0305908323681485e+06 -3.3197548540853178e+06
        -1.7568765717100184e+06 -2.2863863708373499e+06
        -1.9042986963867780e+05 2.7587096680380823e+05
        8.4111256278196443e+05 1.5277766104683157e+06
        1.9643091429830648e+06 -1.2393311041572797e+06
        -1.2712398237801746e+06 4.2240910027157161e+06
        4.7217986929554958e+05 -1.6855348730497456e+06
        -2.6686828144994499e+06 -1.8129086285842881e+06
        -7.0714738200480642e+05 -4.1214324318614230e+05
        2.5825246698972350e+05 1.5696652508725580e+06
        5.6680614476320532e+05 4.0141236605461473e+06
        5.4749619268847175e+05 -8.2318483793457842e+05
        1.0637618718983340e+06 2.8300121492537553e+05
        -6.4517696504482150e+05 2.1757871004462615e+06
        6.3377810308107245e+05 -5.6536045444266172e+05
        -4.0023955711568855e+06 1.8839949086096771e+06
        -4.0083962320735492e+05 5.0563189355792738e+06
        -8.4993212072090879e+06 -6.5580159690147843e+06
        1.0875803556569575e+06 3.6854567001690976e+06
        -2.8579086553921984e+06 4.5028023297016956e+06
        4.0009716045273840e+07 4.9499605573628088e+06
        4.7353478047820982e+06 1.3882259084935645e+06
        -6.9681791197066521e+05 -5.7475149769650726e+05
        -1.7292531147121615e+06 -2.3516152601346895e+06
        -3.1238407487704973e+06 1.4945624446813050e+06
        1.3888297679660139e+06 1.1510190598145295e+06
        -3.4205154545690487e+06 1.7260909092287752e+06
        1.8240254252107576e+06 -1.6024640132979350e+05
        3.6653465863541700e+06 2.0768182677277520e+06
        -4.1773061620388343e+05 -4.8835172517260129e+05
        2.8003917179530365e+06 -1.7762975650426280e+06
        1.2776603694849317e+06 4.5606941617183061e+05
        -1.6292471225415473e+06 5.3806571272639558e+03
        2.2673382135716351e+06 2.9807860394359799e+04
        5.7552463010681542e+06 3.2167994531360799e+06
        1.5273218360073941e+06 -2.1389101233213441e+05
        1.3390557454576690e+06 -2.3169083755097440e+06
        1.5162318590779533e+06 -3.3659795386246680e+06
        -1.0967116725430177e+06 -2.0036706274676626e+05
        4.3434671469519893e+05 6.4468193332320719e+05
        1.5336393459352907e+06 -6.4123389963064762e+06
        4.2510236054477375e+06 -1.3600832100653794e+07
        1.5052124576357218e+07 -9.7812060846451018e+06
        -2.7032765281204181e+06 -5.9873874881947124e+06
        -4.0892280338162910e+06 2.8305746936873533e+06
        6.7176817557181623e+06 4.9499605573628088e+06
        1.9117552968348332e+07 -1.2065240234240331e+05
        8.9588123450185414e+06 2.8860532042214726e+06
        -3.4655999445950240e+06 -1.7645316345872995e+06
        -9.2016988214406697e+05 1.4742446247827061e+06
        -3.9061033660550420e+06 -2.5692130007117116e+06
        -2.0322375444287769e+06 -1.4379206982393889e+06
        -4.1660995095987595e+05 8.9697823091746261e+05
        -9.3445665145239444e+05 5.4485042422172357e+05
        8.0093643330755923e+05 -8.7985265402165661e+05
        1.4616888975312433e+06 -1.5460653034558170e+06
        -1.3755279850348132e+04 4.6930949182536115e+05
        -1.1155657051909615e+06 -5.9660510683926987e+05
        -1.2426017280027533e+06 2.1151931098151840e+06
        1.5371429337868607e+06 -2.4766629646018939e+06
        -5.7378585202445788e+05 -8.3689610927140096e+05
        -2.8892603143163573e+05 1.0442485580343514e+05
        1.0058721685989578e+06 -6.3341808785446081e+05
        -1.1449290467644313e+06 -6.0731002930391952e+05
        -1.6721687923756591e+05 3.1885551286914153e+04
        6.4176175657250697e+05 1.3132958940879845e+06
        -9.9158181760529615e+06 1.5071063855973298e+07
        3.3736359931793823e+06 -1.0934591651190583e+07
        7.3207456824544184e+06 -1.1736432432118864e+06
        -9.0817603930778839e+06 1.1064423988816447e+06
        6.2348476829588963e+06 -6.3043769146509534e+06
        4.7353478047820982e+06 -1.2065240234240331e+05
        2.3673965622096766e+07 2.4279867456012759e+06
        1.7108844573701581e+06 -2.4528376355976635e+06
        3.8524720263199271e+06 -4.1090087702153092e+06
        -3.7152481632820065e+06 4.4669870111059584e+06
        1.6284338814711692e+06 1.7176109185368870e+06
        -9.1170977351232327e+05 -1.9899839564005192e+05
        1.0569266726450548e+06 -5.8638649863107863e+05
        2.4229396708069518e+06 4.1431617855731968e+05
        -5.9590360803370504e+05 -1.1484020977842808e+05
        -2.4151784667651784e+06 -4.1476574696488795e+04
        -2.3576775208311840e+06 2.4100699786043866e+06
        -7.1023023894849280e+05 -4.3788994217375014e+05
        3.3347747007850455e+06 1.4285282042241951e+06
        -2.9355395370765356e+05 3.6231020374153191e+06
        9.6790851741378685e+05 -3.0885903221781924e+05
        2.1921227236720608e+06 -1.4208274144726507e+06
        -8.4106893821754656e+05 1.1925348748393697e+06
        3.0232551154673001e+05 1.7340593712268281e+04
        -5.9522831008724682e+05 -1.3203744241288514e+05
        -3.1895145443413884e+05 -2.3213802364159886e+07
        -3.4051982268782142e+06 -5.8437373637344362e+06
        3.1807695253933202e+06 -3.7874699662058274e+06
        -2.7959577308762781e+06 5.6487183204179222e+05
        -1.4061867090882412e+06 -2.8321956711351397e+06
        7.0139235576232616e+06 1.3882259084935645e+06
        8.9588123450185414e+06 2.4279867456012759e+06
        1.2929611240429550e+07 -5.9975821949057281e+05
        -7.2431605870391184e+04 -7.5902435388723761e+05
        -3.1162001045021703e+06 1.9766051469005770e+06
        2.6807498556468356e+05 7.2572577010310511e+05
        1.8630920112547413e+06 -3.6367814781446923e+06
        -3.2405619147774549e+06 1.0095442681203592e+06
        -1.0040574997855995e+06 6.3924858238080610e+05
        7.3181359935220727e+05 -3.3269133954698150e+05
        -2.3475756068654195e+05 -9.0308119589620992e+05
        -7.2668563977472309e+04 1.2822582286123994e+06
        4.3011740536112897e+05 -7.4966713488264894e+05
        -4.1670155638021650e+05 1.8121055969707191e+06
        2.4337198309278046e+06 -2.4041652887804806e+06
        -1.6876381410142691e+06 -1.4952937635672564e+05
        2.7142199135760823e+05 -2.7960012771779744e+04
        1.4388436688560396e+06 -1.3453158412886474e+06
        -3.3285158655840304e+05 8.3483185666454583e+05
        -1.4266088984133895e+06 8.5267542614900065e+05
        3.2112135412952048e+04 -8.0683695222297544e+05
        -1.5636402135552308e+06 2.6056688356428128e+06
        -5.9286693063503345e+06 2.3920497367974231e+05
        -7.3294805760659603e+05 6.6572334841902647e+05
        -4.2700861660336368e+06 -4.6335657345302040e+06
        7.7384527344631369e+05 9.2010749134074198e+05
        -6.9681791197066521e+05 2.8860532042214726e+06
        1.7108844573701581e+06 -5.9975821949057281e+05
        1.6504631813168839e+07 3.8917640133095672e+04
        2.1979060621315977e+06 -1.8864438575202925e+06
        -2.5171964610525062e+06 -2.8541472545455517e+06
        -5.2439036765314788e+06 -2.8129510666748490e+06
        -2.4865595061213155e+06 1.2463858303855420e+06
        2.0335467242180840e+06 -3.2244862933075437e+06
        1.8476415765640531e+06 -2.3877311889958782e+06
        -1.7669100820136862e+05 2.4171780116151464e+06
        -3.4522268144617969e+05 -5.7081126356106705e+05
        3.3214635700920122e+06 4.8569711949451570e+05
        -1.5306520599659570e+06 -1.8414940433474106e+05
        7.7586440552702779e+05 1.3201840884293192e+06
        3.1073593676156324e+05 -7.0979903734511067e+05
        8.9301130739238742e+05 1.2256479653516263e+06
        1.3049773738650931e+06 -3.4807926426955312e+06
        6.6981306808743358e+05 1.3476064847816916e+06
        1.3239999996905706e+06 4.8126775025347795e+05
        9.0327917187236890e+04 2.8366284663830278e+05
        -1.4981850902762543e+06 1.5210008487330463e+07
        -3.7896471578897443e+05 -1.5001340506683756e+05
        -4.3765248849350242e+06 6.1111405542747909e+05
        2.2155677204266330e+05 1.4101345441618292e+06
        1.2822412199154771e+06 -1.5858344622333194e+06
        4.5250740304416418e+06 -5.7475149769650726e+05
        -3.4655999445950240e+06 -2.4528376355976635e+06
        -7.2431605870391184e+04 3.8917640133095672e+04
        1.0565612824616116e+07 -2.1231917810511943e+06
        6.4959334049445880e+05 5.1150140359984376e+06
        3.5085874203632865e+06 -1.3752550727131951e+05
        -2.5500751642547683e+06 -2.8930050867846655e+06
        -2.7426484982677270e+06 4.4805745070792822e+05
        -1.4165230772116743e+06 6.3647689954216359e+04
        4.9148455744736543e+05 -1.4423018046519917e+06
        -4.1781631636058574e+05 1.3679559504018887e+05
        2.2192262436314538e+05 2.9498106215244117e+06
        1.1110380062516311e+06 1.4955051005750764e+06
        2.1749745992967933e+06 -2.2022876486297592e+05
        7.0831736389947869e+05 6.2347059417029168e+05
        1.2449135524941972e+06 -1.4401850009630842e+05
        1.3546060329583706e+06 -8.8463037926248636e+05
        -1.6284759448540555e+06 -3.4556482717223634e+05
        -4.8120028491019225e+05 2.0571035748072441e+06
        -1.5572982392800143e+06 1.0257034690239960e+06
        -3.7054932396957558e+05 2.8549555393454985e+05
        1.3581798228281248e+07 -2.3598654407319846e+06
        3.5477198735872149e+06 1.3293614990000473e+06
        1.8098150350197414e+06 -2.3312443805910889e+06
        2.6826461803872096e+06 1.4274974191700253e+06
        4.8211635271549840e+06 -5.9338939729052912e+06
        -1.7292531147121615e+06 -1.7645316345872995e+06
        3.8524720263199271e+06 -7.5902435388723761e+05
        2.1979060621315977e+06 -2.1231917810511943e+06
        1.3151099176303189e+07 3.3313384397799950e+06
        -4.3753737408192176e+06 -1.2883131311775027e+06
        4.0780086318717245e+05 -2.3636972103054789e+06
        -2.6495834479417074e+06 -1.0371745812354842e+06
        -9.4440607553146896e+04 -9.3978156464538653e+04
        -2.1009928127057776e+06 7.3226293625396595e+05
        2.2943493734012858e+05 -7.2527712079158193e+05
        -1.7480739234487717e+06 -4.1877674331248866e+05
        1.5048336224540859e+05 -1.6023921302123889e+06
        -2.4288003188308328e+04 2.2872339525239449e+05
        1.1968206943185865e+06 1.5955889012283601e+06
        -5.5388307612166367e+05 7.1233984594358853e+05
        6.7532874732395739e+05 1.3783701109712552e+06
        1.7435523987221208e+06 5.7102873575046787e+05
        -1.4647268837147914e+06 1.1041852528210864e+06
        1.2589338691581131e+06 -3.7619152252208348e+05
        7.8438428345237719e+05 -5.7607770658212760e+05
        -9.0580159141568723e+05 -3.1193163259032550e+06
        -6.2277261476705107e+05 2.3481480716680344e+06
        3.5685077303849505e+06 -8.9083180318494141e+06
        3.5074667953349734e+06 6.0403045472388491e+06
        1.7530712799026757e+06 5.7166585127791890e+05
        -2.5047801950563188e+06 -2.3516152601346895e+06
        -9.2016988214406697e+05 -4.1090087702153092e+06
        -3.1162001045021703e+06 -1.8864438575202925e+06
        6.4959334049445880e+05 3.3313384397799950e+06
        1.2612364942979025e+07 2.2558017116214242e+06
        3.0419875930664232e+06 -1.7034411646725140e+06
        -5.0061743786849780e+06 1.5402025654750573e+05
        1.7399389191528889e+06 -8.3836026258202316e+05
        2.1491393481683888e+05 3.8729713198908605e+04
        1.6335713240585753e+06 -2.1287986664333474e+05
        -1.6998317263018817e+06 -1.6991711590439081e+02
        3.4347024334461807e+04 1.5435572951424791e+05
        -2.2783175614779573e+06 1.8152393909764891e+06
        1.0260296089327887e+06 1.0954439192784321e+06
        1.9477605139170883e+06 -9.7502092433150508e+04
        8.1094773300937051e+05 -1.2723371833296635e+06
        -1.5010772522723218e+06 6.5265987965092377e+05
        1.0889661975975581e+06 7.4156977556014445e+05
        4.5845804615032190e+05 -2.7363951087612187e+05
        1.9615845240669320e+06 4.9664780635772622e+04
        7.1684903741410817e+05 2.0490790738173290e+06
        -2.1843812954048812e+05 -2.2735635211579548e+06
        -8.6561227211261280e+06 -4.7037535883934014e+06
        4.1753248769046115e+06 -2.6205025759580890e+06
        -2.7820785468542287e+06 5.3620782660358632e+05
        1.5402512855139594e+06 3.4601028194525414e+06
        -3.1238407487704973e+06 1.4742446247827061e+06
        -3.7152481632820065e+06 1.9766051469005770e+06
        -2.5171964610525062e+06 5.1150140359984376e+06
        -4.3753737408192176e+06 2.2558017116214242e+06
        1.3111527165070388e+07 3.5903072490207562e+06
        5.9148980963678285e+05 -1.5090398432523236e+06
        -5.1587681514442898e+05 -1.2342374241986154e+06
        -5.8472507534690725e+05 -3.4961822684318838e+06
        -1.2607773065632246e+06 1.7302429163585170e+06
        3.9846328032234684e+05 -9.3471295989228273e+05
        -4.9699932026916044e+05 1.8875229640891214e+06
        1.5520683601875398e+06 1.4560880867740652e+06
        4.4218351097132848e+05 1.3099021544818522e+06
        -9.2179899878355523e+05 -1.1086987612283113e+06
        7.1795949587964569e+04 -8.0588536031016288e+05
        -1.1413036160697001e+06 -2.2661439699939997e+06
        -9.8093511174339917e+05 -5.1922356083141197e+05
        -8.8209034088108921e+04 -1.2184714713385506e+06
        2.2716745427937817e+05 1.0323574056865356e+05
        -2.4147594533954805e+05 1.7145826223516890e+06
        1.5209545562464364e+06 -1.6381750304259513e+07
        -1.2160437122470001e+06 2.9326604378197389e+05
        -8.7246881718662046e+06 -6.6029976540713757e+06
        -3.7634929014232820e+06 2.5434454946316853e+06
        6.6678901089815469e+05 -2.4705649021952306e+06
        -1.6898522042973021e+06 1.4945624446813050e+06
        -3.9061033660550420e+06 4.4669870111059584e+06
        2.6807498556468356e+05 -2.8541472545455517e+06
        3.5085874203632865e+06 -1.2883131311775027e+06
        3.0419875930664232e+06 3.5903072490207562e+06
        1.2788130831361484e+07 -1.0763336402279928e+06
        -4.8042983504468342e+04 9.4756222832170269e+05
        -1.8242151286313597e+06 1.5039799490941607e+06
        -1.2840960401420244e+06 1.8804960352936783e+05
        9.8482176305111416e+05 5.7549589596996270e+05
        2.9203367678350164e+05 1.3921936771092331e+06
        2.3607952043277747e+05 -6.8789542101849045e+05
        -3.8807659628354479e+04 -7.9055829374775128e+05
        1.4528667243926465e+06 1.2094311282897573e+06
        -4.3563358672058908e+05 -1.8193286014158837e+05
        9.6353671834834199e+05 9.7421315987131512e+05
        -2.5724713105209998e+05 -1.4159282282250444e+06
        -1.7220849892983658e+06 6.3080706736626057e+05
        1.4859163401991883e+06 8.9094941024121782e+05
        -1.1845888241674481e+06 5.5179505765152443e+05
        6.0846728867559787e+05 2.2393805495933415e+06
        4.0470936660643797e+06 8.7003391420127135e+06
        6.0034224069568934e+06 -2.2494711915330826e+06
        5.6928602384465691e+06 2.9380492039998621e+05
        1.8770467518749489e+06 2.2436305999995759e+06
        2.2200178719626199e+06 5.8169456780950795e+05
        1.3888297679660139e+06 -2.5692130007117116e+06
        1.6284338814711692e+06 7.2572577010310511e+05
        -5.2439036765314788e+06 -1.3752550727131951e+05
        4.0780086318717245e+05 -1.7034411646725140e+06
        5.9148980963678285e+05 -1.0763336402279928e+06
        6.7954419851532578e+06 1.8796595132330125e+06
        -1.1274145956245866e+06 -9.6565863881064497e+05
        -1.7049119021686194e+06 -2.7491320040277683e+05
        1.1499570822528847e+06 -1.9740195608408400e+05
        1.8465719931005321e+06 -2.1473560091119781e+06
        7.2536186642466881e+05 -3.5399003623749479e+05
        -1.1208920079950292e+06 3.9431563642050594e+05
        7.3259686626563082e+05 -2.3581073136246949e+05
        -3.3997142832286283e+05 -1.2554132242979920e+06
        5.8644305545708048e+04 -5.5131346057137032e+05
        6.5112860390554182e+05 1.1327958189903363e+06
        -5.4718685271453147e+05 1.1111216184971815e+06
        -1.7381541398213578e+06 -1.1107102614092627e+06
        -3.8050279563317791e+05 2.4239497095196141e+05
        -5.8981578861316189e+05 6.2548850993682281e+05
        -6.1952290311714693e+05 9.0112403242353490e+05
        -6.6692081226608763e+06 3.8580517122798106e+06
        -1.7158640008481527e+06 2.5183459561926159e+06
        -2.1463970583444899e+06 9.6350298041773844e+04
        -8.7202192816900392e+05 -1.0222030546623267e+06
        -1.0305908323681485e+06 1.1510190598145295e+06
        -2.0322375444287769e+06 1.7176109185368870e+06
        1.8630920112547413e+06 -2.8129510666748490e+06
        -2.5500751642547683e+06 -2.3636972103054789e+06
        -5.0061743786849780e+06 -1.5090398432523236e+06
        -4.8042983504468342e+04 1.8796595132330125e+06
        7.9799563140962347e+06 1.7497698231528476e+06
        -9.9234796302835329e+05 1.0606261781625422e+06
        2.3591740482828591e+05 1.2081063628219317e+06
        1.8493510355682368e+05 5.5324617261388944e+05
        -6.5580590026366408e+05 2.6640761417407286e+06
        9.2094263770343410e+05 -1.3919474475055654e+06
        1.4723172578090469e+06 -7.4039735007121577e+04
        7.2063726037660777e+05 -4.0511285210944479e+05
        -9.2677030096666515e+05 1.2326772736214979e+06
        -1.5504189556453843e+06 8.1624823010398401e+05
        5.9103898273084604e+05 -5.8948214642494405e+05
        -6.1336330754390033e+05 6.5316837963820173e+04
        -4.8328261214006122e+05 -6.5061333566263318e+05
        -6.2687438776725181e+05 -2.7642047521219670e+05
        -1.0253865372651577e+05 -3.8030436169487651e+05
        -1.0012625708401222e+06 8.0097319643651322e+06
        -2.2786716571009904e+05 -3.4063855781922592e+06
        8.0509974113475601e+05 3.8832761192051531e+06
        -1.9415631953627232e+06 -4.4765592225634417e+05
        -4.4749584144324949e+06 -3.3197548540853178e+06
        -3.4205154545690487e+06 -1.4379206982393889e+06
        -9.1170977351232327e+05 -3.6367814781446923e+06
        -2.4865595061213155e+06 -2.8930050867846655e+06
        -2.6495834479417074e+06 1.5402025654750573e+05
        -5.1587681514442898e+05 9.4756222832170269e+05
        -1.1274145956245866e+06 1.7497698231528476e+06
        9.0115434332418591e+06 1.1661768951395401e+06
        1.2964278511878080e+06 2.1842275772736426e+06
        -8.1302613645180233e+05 -9.4818159107412735e+04
        -1.0511628949575662e+05 -3.7845286170471972e+05
        -5.8189288389377284e+05 1.2096270214787421e+06
        -5.0731634019769914e+05 -2.9521066912331893e+06
        -1.1013595120163737e+06 1.4988499379718602e+06
        5.9410366670602607e+05 -2.0541825318696243e+06
        -2.0503423104278964e+05 -2.6453056412747176e+05
        3.3354207710765116e+05 -2.5999173251600662e+05
        -1.0025669458098914e+06 3.2311984718993184e+05
        1.7649868550527841e+06 1.3770407938870394e+06
        -3.1174105325254772e+04 -5.5789238388408930e+05
        6.3901526148370479e+05 9.3098039258256461e+05
        5.0401468143066810e+05 -5.7864344075361481e+06
        -2.7687830698192734e+06 -1.8649622009017575e+06
        5.5593554016110599e+06 7.3886195233357605e+04
        3.3141606721350914e+06 9.4611580053105718e+04
        1.9602931115339283e+05 6.6176786316992133e+05
        -1.7568765717100184e+06 1.7260909092287752e+06
        -4.1660995095987595e+05 -1.9899839564005192e+05
        -3.2405619147774549e+06 1.2463858303855420e+06
        -2.7426484982677270e+06 -1.0371745812354842e+06
        1.7399389191528889e+06 -1.2342374241986154e+06
        -1.8242151286313597e+06 -9.6565863881064497e+05
        -9.9234796302835329e+05 1.1661768951395401e+06
        6.5081186143953325e+06 3.0247705034995696e+05
        1.1053623066477017e+06 -4.6026609675148199e+05
        1.4350230118542642e+05 5.2742035547047830e+05
        7.1589931895421771e+05 1.3671696040092476e+06
        -3.2706133840427443e+05 4.4092218111176509e+05
        8.6948534226842818e+05 -1.7438513821089275e+06
        2.8636116237619775e+04 -2.4471852529931101e+06
        -1.1569245213370388e+06 1.0870673451236424e+06
        1.9742139469087883e+06 -1.8084639847397730e+06
        -1.5928394610733315e+06 -1.6863303946046103e+05
        2.7718850351203833e+05 8.3635905772972808e+04
        1.3770212323667621e+06 -8.2396252381767248e+04
        2.2071746703301864e+06 -2.7579007760081446e+05
        -7.5989170406895375e+05 1.1885975493412476e+05
        8.6857309275688585e+06 -5.9476499931228207e+06
        -4.9092365635180064e+06 2.0565901813161597e+06
        1.1532816192015759e+06 1.8764362496338850e+06
        2.6144724255557307e+06 -1.0655075900064115e+06
        -4.9505721096672285e+06 -2.2863863708373499e+06
        1.8240254252107576e+06 8.9697823091746261e+05
        1.0569266726450548e+06 1.0095442681203592e+06
        2.0335467242180840e+06 4.4805745070792822e+05
        -9.4440607553146896e+04 -8.3836026258202316e+05
        -5.8472507534690725e+05 1.5039799490941607e+06
        -1.7049119021686194e+06 1.0606261781625422e+06
        1.2964278511878080e+06 3.0247705034995696e+05
        6.2295284981607087e+06 -1.5030357253838389e+06
        1.5215277904813471e+06 -1.1215286452582327e+06
        -8.8955146870784299e+05 5.0924696537488152e+05
        -9.2972796775668277e+04 -4.5471051160697016e+05
        2.1193267664101482e+06 -1.1783967925889656e+05
        -2.1516429841467406e+05 2.1549207791674221e+06
        -5.2212409761285305e+05 1.8148773048855544e+06
        1.1319949105555487e+06 6.0095364383922075e+05
        -5.5982561758238904e+05 -2.0899922153765918e+05
        -2.3488419276894340e+06 -1.1372303532160781e+06
        -6.5197799555118929e+05 1.5551764942023426e+05
        -1.0563613661334936e+06 2.2241993607179765e+05
        1.7322144417725963e+05 7.9044984072245529e+05
        -2.5318905231594632e+04 2.4683212014315967e+06
        7.3684105977282347e+05 3.2715927436520765e+06
        -2.2460395605276432e+06 -1.9855916712013138e+06
        4.3650587351048365e+04 5.8449847187254811e+04
        8.1364599246628245e+05 -8.9925922523473529e+05
        -1.9042986963867780e+05 -1.6024640132979350e+05
        -9.3445665145239444e+05 -5.8638649863107863e+05
        -1.0040574997855995e+06 -3.2244862933075437e+06
        -1.4165230772116743e+06 -9.3978156464538653e+04
        2.1491393481683888e+05 -3.4961822684318838e+06
        -1.2840960401420244e+06 -2.7491320040277683e+05
        2.3591740482828591e+05 2.1842275772736426e+06
        1.1053623066477017e+06 -1.5030357253838389e+06
        5.7862917382940697e+06 -8.6129240722186700e+05
        5.4933088696799951e+05 8.2045881841027807e+05
        1.0313435927523657e+06 2.4079462040821253e+05
        -3.4282862997405214e+05 -1.1761100579706493e+06
        -1.6414809807669125e+06 -4.6740717914304812e+04
        7.9582881397755910e+05 1.3256075072101657e+06
        -3.2531359050158993e+05 -1.8169687249284249e+06
        1.9721807959889718e+06 -9.5664507144547941e+05
        3.9806696091629291e+05 2.0860720039619892e+05
        1.0361368664357613e+06 -3.5672407017027179e+05
        1.1051042487847034e+06 -2.8791849153106508e+05
        -3.8345305271528196e+04 3.4528008687122434e+04
        -6.6681736347806756e+04 2.4889314606726123e+05
        1.0172869643955411e+07 7.7559474355139239e+06
        3.8635260449426626e+06 -1.5631136144432805e+06
        -2.5518905004825350e+06 2.6522909129760927e+06
        2.0241652588241682e+06 -8.6196442931439611e+05
        -1.6674557788301280e+06 2.7587096680380823e+05
        3.6653465863541700e+06 5.4485042422172357e+05
        2.4229396708069518e+06 6.3924858238080610e+05
        1.8476415765640531e+06 6.3647689954216359e+04
        -2.1009928127057776e+06 3.8729713198908605e+04
        -1.2607773065632246e+06 1.8804960352936783e+05
        1.1499570822528847e+06 1.2081063628219317e+06
        -8.1302613645180233e+05 -4.6026609675148199e+05
        1.5215277904813471e+06 -8.6129240722186700e+05
        5.8513330602801926e+06 -1.9971865297455783e+06
        4.2024689496736345e+05 -1.1720881457046594e+06
        1.8893181244748330e+06 -5.3215895146003645e+05
        4.9403918426705815e+05 7.8733298440371954e+05
        1.2290173041148419e+06 -3.4088927974752232e+05
        6.6813543345197383e+05 8.8405616038671893e+05
        4.8129200130503136e+05 -4.2683898501971480e+05
        1.1980734820036092e+06 5.5705454462439602e+05
        -6.1552919528441655e+05 -7.8102985741294432e+05
        -6.5830912257139385e+05 8.4683289140905865e+04
        -6.8745261861554184e+05 1.3297630328724375e+06
        -9.0253398456485989e+05 1.8511076404966065e+06
        3.2265724322570255e+04 -1.2731647930939857e+07
        -6.9455656120624654e+06 -6.4325461745123402e+05
        -5.6727519437958230e+05 1.4051218622893868e+06
        1.0795417553087515e+06 -2.5534719227896980e+06
        -1.8758950913764595e+05 1.1887743032657774e+04
        8.4111256278196443e+05 2.0768182677277520e+06
        8.0093643330755923e+05 4.1431617855731968e+05
        7.3181359935220727e+05 -2.3877311889958782e+06
        4.9148455744736543e+05 7.3226293625396595e+05
        1.6335713240585753e+06 1.7302429163585170e+06
        9.8482176305111416e+05 -1.9740195608408400e+05
        1.8493510355682368e+05 -9.4818159107412735e+04
        1.4350230118542642e+05 -1.1215286452582327e+06
        5.4933088696799951e+05 -1.9971865297455783e+06
        4.5562253007382201e+06 -1.3596307474482241e+06
        -4.5311717302770034e+05 9.7264081785988098e+05
        1.2475108158305619e+05 -1.2076781244184838e+06
        6.8182693565257825e+04 1.0886786071725143e+05
        7.1418303967563994e+05 8.4361457886709319e+05
        5.4277859821436054e+05 1.1921474282232893e+06
        1.5014736839641689e+06 2.1521176598123903e+05
        -1.3224329358512035e+06 7.6042829652734357e+05
        5.6272322601467627e+05 9.5966744834691181e+05
        -5.7073817262574052e+05 1.0000118762439863e+06
        -3.7301745558033092e+05 1.0388200941640181e+06
        -2.7357620396672568e+05 5.3755594135959656e+05
        -4.6619168675052226e+06 5.1888397558508227e+06
        -1.9636256371800159e+06 -1.2566006449617753e+06
        -9.2356864042506274e+05 -4.6595797509192079e+06
        -8.0955307146437466e+05 4.8219930200708332e+05
        2.0942538124798138e+06 1.5277766104683157e+06
        -4.1773061620388343e+05 -8.7985265402165661e+05
        -5.9590360803370504e+05 -3.3269133954698150e+05
        -1.7669100820136862e+05 -1.4423018046519917e+06
        2.2943493734012858e+05 -2.1287986664333474e+05
        3.9846328032234684e+05 5.7549589596996270e+05
        1.8465719931005321e+06 5.5324617261388944e+05
        -1.0511628949575662e+05 5.2742035547047830e+05
        -8.8955146870784299e+05 8.2045881841027807e+05
        4.2024689496736345e+05 -1.3596307474482241e+06
        5.9456355191546595e+06 9.3230519192673755e+05
        -9.3263882394358050e+04 -9.6802132300536509e+05
        -1.4311607971513108e+05 -2.3242906356971920e+05
        -1.2731637592209699e+06 3.7073086198960803e+05
        1.6550484380499576e+04 -4.5399207729074592e+05
        -3.1312415779987653e+05 -6.8310312057434244e+05
        -1.1278872869853075e+06 8.6286146315596264e+05
        -6.0809802956663433e+05 8.3879573512560339e+05
        -2.0654285790573827e+06 3.6328879768663895e+05
        -1.1678251711101127e+06 2.2444405686793401e+05
        -1.6925563444171962e+05 1.5905898430532771e+06
        -1.4214775912151259e+05 4.1163038672536742e+06
        2.2840129151386470e+06 -5.2880026107691582e+06
        -1.5123971277362304e+06 -2.1702716184918438e+06
        -4.4143758824756760e+06 -2.8628422341901590e+06
        -1.5472874429811764e+05 -5.9326598330775136e+05
        1.9643091429830648e+06 -4.8835172517260129e+05
        1.4616888975312433e+06 -1.1484020977842808e+05
        -2.3475756068654195e+05 2.4171780116151464e+06
        -4.1781631636058574e+05 -7.2527712079158193e+05
        -1.6998317263018817e+06 -9.3471295989228273e+05
        2.9203367678350164e+05 -2.1473560091119781e+06
        -6.5580590026366408e+05 -3.7845286170471972e+05
        7.1589931895421771e+05 5.0924696537488152e+05
        1.0313435927523657e+06 -1.1720881457046594e+06
        -4.5311717302770034e+05 9.3230519192673755e+05
        5.2182827982183062e+06 -9.4348149152085232e+05
        -1.3325420358733661e+06 -3.2529933243224863e+04
        2.5336759203313675e+05 -2.6144241208767854e+06
        -7.1465091508508474e+05 -7.2491794167962018e+05
        -1.0484315845129609e+06 -6.3617164363133401e+04
        7.4172832688741153e+05 -9.7309141494981642e+05
        -8.3108481759961275e+05 5.9039062534395998e+04
        -8.5083121705199603e+05 -1.0236937580659203e+06
        5.9238223890961788e+04 -3.8422223600689985e+05
        1.0590748175516806e+06 4.9455784002441046e+05
        5.1192081415686267e+05 7.2278716595659847e+05
        3.5102608809988666e+06 -7.5577518953761719e+06
        2.3991544076541360e+06 4.2805715522068720e+06
        -4.4032172704790179e+06 5.8055009636523994e+05
        1.2238610564375538e+06 -2.0946484812714620e+06
        1.1684498832892226e+06 -1.2393311041572797e+06
        2.8003917179530365e+06 -1.5460653034558170e+06
        -2.4151784667651784e+06 -9.0308119589620992e+05
        -3.4522268144617969e+05 1.3679559504018887e+05
        -1.7480739234487717e+06 -1.6991711590439081e+02
        -4.9699932026916044e+05 1.3921936771092331e+06
        7.2536186642466881e+05 2.6640761417407286e+06
        -5.8189288389377284e+05 1.3671696040092476e+06
        -9.2972796775668277e+04 2.4079462040821253e+05
        1.8893181244748330e+06 9.7264081785988098e+05
        -9.3263882394358050e+04 -9.4348149152085232e+05
        9.4827344896150976e+06 6.6634815609836602e+05
        -1.1481133200471611e+06 3.9723552159099525e+05
        5.9492080821800418e+05 3.8027017931065068e+05
        -1.5052260541556329e+06 -1.8336929466402279e+06
        1.6447509239176023e+06 -1.1574140709520951e+06
        1.3564829938986585e+06 1.5152088700359967e+06
        4.0903105475075805e+05 -1.4573087567778258e+06
        -4.5963601486057567e+04 -2.0652532788724027e+04
        6.0185059726598836e+05 3.2600026995694090e+05
        -8.3914722421835898e+05 -4.1333484416304738e+04
        7.5014806613777764e+05 5.1710393644833844e+05
        -4.7686557561679333e+06 9.0526569302433124e+05
        -2.8746207582422947e+06 1.5679969836150189e+06
        -8.0985635907194158e+05 -8.3493103338021156e+05
        3.3801782389799377e+05 1.4153018837093469e+06
        -1.2712398237801746e+06 -1.7762975650426280e+06
        -1.3755279850348132e+04 -4.1476574696488795e+04
        -7.2668563977472309e+04 -5.7081126356106705e+05
        2.2192262436314538e+05 -4.1877674331248866e+05
        3.4347024334461807e+04 1.8875229640891214e+06
        2.3607952043277747e+05 -3.5399003623749479e+05
        9.2094263770343410e+05 1.2096270214787421e+06
        -3.2706133840427443e+05 -4.5471051160697016e+05
        -3.4282862997405214e+05 -5.3215895146003645e+05
        1.2475108158305619e+05 -9.6802132300536509e+05
        -1.3325420358733661e+06 6.6634815609836602e+05
        2.7890971731951647e+06 2.8769821760029113e+05
        2.3432380062356009e+05 1.3003301253763195e+06
        5.4172204061806295e+05 -4.4989138498116168e+04
        -8.0423337678477913e+05 -1.2333524924312283e+06
        -1.2200289707059572e+06 2.8629095026717626e+05
        4.8190843063980096e+05 1.1983642232511363e+06
        -3.1820034643761726e+05 9.4541314109317539e+05
        3.6203016419540497e+05 8.5529636427411949e+05
        -2.1330720553788776e+05 -6.4569502031193231e+05
        -1.2810378351516259e+05 4.4223238703592017e+05
        1.0374724842867255e+07 -5.0485889242525557e+06
        -4.3860581309754960e+06 2.4769283878858224e+06
        4.1148343792733119e+05 1.4021150036024475e+06
        1.8524603749241207e+06 2.1066386591939707e+06
        -3.3914634848341336e+06 4.2240910027157161e+06
        1.2776603694849317e+06 4.6930949182536115e+05
        -2.3576775208311840e+06 1.2822582286123994e+06
        3.3214635700920122e+06 2.9498106215244117e+06
        1.5048336224540859e+05 1.5435572951424791e+05
        1.5520683601875398e+06 -6.8789542101849045e+05
        -1.1208920079950292e+06 -1.3919474475055654e+06
        -5.0731634019769914e+05 4.4092218111176509e+05
        2.1193267664101482e+06 -1.1761100579706493e+06
        4.9403918426705815e+05 -1.2076781244184838e+06
        -1.4311607971513108e+05 -3.2529933243224863e+04
        -1.1481133200471611e+06 2.8769821760029113e+05
        5.9473289336262178e+06 -1.1123566699140971e+05
        -3.8175993989733548e+05 1.2264522566867599e+06
        -1.5499861481632928e+06 1.2937060471667629e+05
        -8.1348212019137398e+05 3.1648375424780184e+05
        -9.2129176528976008e+05 1.0382596674938661e+06
        1.0262347287744368e+05 -1.2792464951413623e+06
        -8.3261172098623007e+05 1.5378648926705772e+06
        1.2225619766018565e+06 2.0279776940688008e+05
        -1.1008480950959190e+05 1.0750421240163799e+06
        -9.3843813576080813e+05 1.0437441137433242e+07
        -1.1440346990916375e+07 -3.6834118001205353e+06
        -2.6674310444120737e+05 3.0619785795414355e+06
        -1.8160695820414769e+06 -4.3418784217453329e+05
        1.0614646391521671e+06 -1.1920361034625915e+06
        4.7217986929554958e+05 4.5606941617183061e+05
        -1.1155657051909615e+06 2.4100699786043866e+06
        4.3011740536112897e+05 4.8569711949451570e+05
        1.1110380062516311e+06 -1.6023921302123889e+06
        -2.2783175614779573e+06 1.4560880867740652e+06
        -3.8807659628354479e+04 3.9431563642050594e+05
        1.4723172578090469e+06 -2.9521066912331893e+06
        8.6948534226842818e+05 -1.1783967925889656e+05
        -1.6414809807669125e+06 7.8733298440371954e+05
        6.8182693565257825e+04 -2.3242906356971920e+05
        2.5336759203313675e+05 3.9723552159099525e+05
        2.3432380062356009e+05 -1.1123566699140971e+05
        6.8680371288494691e+06 -1.6403207047077361e+04
        -1.4920642303958454e+06 -1.6229301420664280e+06
        -3.1495301026529155e+05 8.2809900164209970e+05
        1.8537115756117855e+06 -4.6884650399188860e+05
        -3.7242110912670335e+05 2.8897867503969028e+03
        7.8343029425807763e+04 -1.4813638766083893e+05
        -3.1532215819254570e+05 8.1220015221303084e+05
        9.0282862860266771e+05 -1.2190090064496765e+05
        -2.5803798682091958e+06 -3.6375589413679315e+05
        -2.9283415589777511e+06 -5.1177113180399500e+06
        1.9547556003475471e+06 1.5503878009864381e+06
        -4.0658711994031398e+05 3.4686605038110353e+05
        -4.6519104379333090e+04 -1.5110791946197357e+06
        2.3287155910022045e+06 -1.6855348730497456e+06
        -1.6292471225415473e+06 -5.9660510683926987e+05
        -7.1023023894849280e+05 -7.4966713488264894e+05
        -1.5306520599659570e+06 1.4955051005750764e+06
        -2.4288003188308328e+04 1.8152393909764891e+06
        4.4218351097132848e+05 -7.9055829374775128e+05
        7.3259686626563082e+05 -7.4039735007121577e+04
        -1.1013595120163737e+06 -1.7438513821089275e+06
        -2.1516429841467406e+05 -4.6740717914304812e+04
        1.2290173041148419e+06 1.0886786071725143e+05
        -1.2731637592209699e+06 -2.6144241208767854e+06
        5.9492080821800418e+05 1.3003301253763195e+06
        -3.8175993989733548e+05 -1.6403207047077361e+04
        5.7766904539857833e+06 9.8948001400935231e+05
        9.6147705252789904e+05 2.0226983302877364e+06
        -4.6521012351138913e+05 -8.3155579012389760e+04
        -2.2723820427621651e+05 5.7235424771574780e+05
        3.9958491020392149e+05 -7.4805456479280931e+05
        1.1727554911126550e+06 -5.5853780533451308e+05
        -1.7021186001510865e+06 2.0170367652285055e+05
        -1.6462414025710078e+06 5.1378682737064699e+05
        -1.9338915972780378e+04 1.7135154322073469e+05
        -1.5064183331456780e+05 -2.1908021806072257e+05
        -1.9063028368044910e+06 -8.1686868200391042e+05
        -2.4871609157312755e+05 3.6705667018447164e+05
        -1.7360894312481512e+05 -9.7529090370605863e+05
        -2.6686828144994499e+06 5.3806571272639558e+03
        -1.2426017280027533e+06 -4.3788994217375014e+05
        -4.1670155638021650e+05 -1.8414940433474106e+05
        2.1749745992967933e+06 2.2872339525239449e+05
        1.0260296089327887e+06 1.3099021544818522e+06
        1.4528667243926465e+06 -2.3581073136246949e+05
        7.2063726037660777e+05 1.4988499379718602e+06
        2.8636116237619775e+04 2.1549207791674221e+06
        7.9582881397755910e+05 -3.4088927974752232e+05
        7.1418303967563994e+05 3.7073086198960803e+05
        -7.1465091508508474e+05 3.8027017931065068e+05
        5.4172204061806295e+05 1.2264522566867599e+06
        -1.4920642303958454e+06 9.8948001400935231e+05
        4.9021108754112199e+06 1.7694539977779551e+06
        1.2922114711995404e+06 -7.3710498553501430e+05
        1.0545938641258576e+06 -1.4903359870129626e+06
        7.0199260297266499e+05 -2.4826469790489147e+06
        -1.0070926253730779e+06 1.7389311041475541e+05
        -2.5893748175814224e+04 8.0707469074334367e+04
        -2.2281811825984891e+05 -1.4201603380709398e+05
        5.7779460040291422e+05 8.2927646008661995e+05
        -9.1850548565536644e+05 6.4968247293466153e+06
        1.9781149795070980e+06 -7.0080898769390341e+06
        -2.9489439506263491e+06 -2.5375184726459025e+06
        -2.9852695542410007e+06 -1.4454895560256022e+06
        2.6637592247569817e+05 -1.8129086285842881e+06
        2.2673382135716351e+06 2.1151931098151840e+06
        3.3347747007850455e+06 1.8121055969707191e+06
        7.7586440552702779e+05 -2.2022876486297592e+05
        1.1968206943185865e+06 1.0954439192784321e+06
        -9.2179899878355523e+05 1.2094311282897573e+06
        -3.3997142832286283e+05 -4.0511285210944479e+05
        5.9410366670602607e+05 -2.4471852529931101e+06
        -5.2212409761285305e+05 1.3256075072101657e+06
        6.6813543345197383e+05 8.4361457886709319e+05
        1.6550484380499576e+04 -7.2491794167962018e+05
        -1.5052260541556329e+06 -4.4989138498116168e+04
        -1.5499861481632928e+06 -1.6229301420664280e+06
        9.6147705252789904e+05 1.7694539977779551e+06
        6.4056447499364382e+06 2.3001117622433212e+06
        -1.6695860165047718e+06 1.2839634506887789e+06
        -1.2455396304148436e+05 1.4439940892994138e+06
        -3.0531061918039602e+05 -1.0327273086723784e+05
        1.1506740889592671e+06 -1.0908718964040894e+06
        -1.0928467308116570e+05 -1.5163632146414996e+06
        4.6355242137588398e+05 9.1496334241466597e+04
        5.5921453141601221e+05 -6.3846814978256049e+06
        -5.3387608899102984e+06 4.0869151299474982e+05
        2.3511700753865698e+06 -2.1045345359921912e+06
        8.9391248388421815e+05 1.6813306088340792e+06
        -1.1430802004556181e+06 -8.5222662941553770e+05
        -7.0714738200480642e+05 2.9807860394359799e+04
        1.5371429337868607e+06 1.4285282042241951e+06
        2.4337198309278046e+06 1.3201840884293192e+06
        7.0831736389947869e+05 1.5955889012283601e+06
        1.9477605139170883e+06 -1.1086987612283113e+06
        -4.3563358672058908e+05 -1.2554132242979920e+06
        -9.2677030096666515e+05 -2.0541825318696243e+06
        -1.1569245213370388e+06 1.8148773048855544e+06
        -3.2531359050158993e+05 8.8405616038671893e+05
        5.4277859821436054e+05 -4.5399207729074592e+05
        -1.0484315845129609e+06 -1.8336929466402279e+06
        -8.0423337678477913e+05 1.2937060471667629e+05
        -3.1495301026529155e+05 2.0226983302877364e+06
        1.2922114711995404e+06 2.3001117622433212e+06
        6.4388281012035031e+06 2.9426261425284285e+05
        3.6946942481958109e+05 -1.1155747495469900e+06
        1.5713601863628169e+05 2.2113753148268405e+05
        1.4633988047806676e+06 -1.6076270325421658e+05
        -5.0391762792768201e+05 -1.6363262455990335e+06
        6.0649246115872869e+04 -4.4527652917682863e+05
        -2.8531424114938534e+04 -9.3231915809587599e+05
        5.0166789147511525e+06 4.0842802278111316e+05
        6.3880066974623129e+04 3.3744168587132031e+06
        3.8928617328045424e+04 -2.4697663739260752e+06
        -1.6224519502047494e+06 -1.9352512722732204e+06
        -2.1281205332534667e+05 -4.1214324318614230e+05
        5.7552463010681542e+06 -2.4766629646018939e+06
        -2.9355395370765356e+05 -2.4041652887804806e+06
        3.1073593676156324e+05 6.2347059417029168e+05
        -5.5388307612166367e+05 -9.7502092433150508e+04
        7.1795949587964569e+04 -1.8193286014158837e+05
        5.8644305545708048e+04 1.2326772736214979e+06
        -2.0503423104278964e+05 1.0870673451236424e+06
        1.1319949105555487e+06 -1.8169687249284249e+06
        4.8129200130503136e+05 1.1921474282232893e+06
        -3.1312415779987653e+05 -6.3617164363133401e+04
        1.6447509239176023e+06 -1.2333524924312283e+06
        -8.1348212019137398e+05 8.2809900164209970e+05
        -4.6521012351138913e+05 -7.3710498553501430e+05
        -1.6695860165047718e+06 2.9426261425284285e+05
        7.4994018065867219e+06 -7.0727201958259684e+05
        -9.5164619996678666e+03 -1.6897504483842077e+06
        -3.1627503514670406e+05 -1.2176925882814107e+06
        1.2626551786962745e+06 -1.4076955006351073e+06
        -1.1644259151806489e+06 1.9874937733000203e+05
        1.8873898319137204e+06 -8.9616452982550836e+04
        -8.5439314355006267e+05 2.0772798409044009e+07
        3.5547100464434102e+06 -1.8684892590528610e+06
        -1.2646746799946381e+06 -1.7669532055072812e+06
        -5.3454945841735881e+05 -5.3605174960507150e+05
        4.6410974939204904e+05 -1.7250435944593265e+06
        2.5825246698972350e+05 3.2167994531360799e+06
        -5.7378585202445788e+05 3.6231020374153191e+06
        -1.6876381410142691e+06 -7.0979903734511067e+05
        1.2449135524941972e+06 7.1233984594358853e+05
        8.1094773300937051e+05 -8.0588536031016288e+05
        9.6353671834834199e+05 -5.5131346057137032e+05
        -1.5504189556453843e+06 -2.6453056412747176e+05
        1.9742139469087883e+06 6.0095364383922075e+05
        1.9721807959889718e+06 -4.2683898501971480e+05
        1.5014736839641689e+06 -6.8310312057434244e+05
        7.4172832688741153e+05 -1.1574140709520951e+06
        -1.2200289707059572e+06 3.1648375424780184e+05
        1.8537115756117855e+06 -8.3155579012389760e+04
        1.0545938641258576e+06 1.2839634506887789e+06
        3.6946942481958109e+05 -7.0727201958259684e+05
        8.9200009551781565e+06 -1.0272643539702215e+06
        -1.6698129194919876e+05 -1.5965137017124170e+05
        1.8502964299639687e+04 4.8580025428955624e+05
        1.3926000962890354e+06 4.1454755974621943e+05
        5.3909223555703717e+05 -2.4724842659612279e+05
        -6.0729469549684599e+05 -1.0537804471513154e+06
        2.2367800294085061e+06 4.2727837390619963e+06
        2.5465330789905684e+06 -3.5140820446009459e+06
        1.3291917251034207e+06 3.6161706816515331e+06
        1.9977762647584556e+06 -1.2346574640652989e+06
        -2.1383718621842237e+06 1.5696652508725580e+06
        1.5273218360073941e+06 -8.3689610927140096e+05
        9.6790851741378685e+05 -1.4952937635672564e+05
        8.9301130739238742e+05 -1.4401850009630842e+05
        6.7532874732395739e+05 -1.2723371833296635e+06
        -1.1413036160697001e+06 9.7421315987131512e+05
        6.5112860390554182e+05 8.1624823010398401e+05
        3.3354207710765116e+05 -1.8084639847397730e+06
        -5.5982561758238904e+05 -9.5664507144547941e+05
        1.1980734820036092e+06 2.1521176598123903e+05
        -1.1278872869853075e+06 -9.7309141494981642e+05
        1.3564829938986585e+06 2.8629095026717626e+05
        -9.2129176528976008e+05 -4.6884650399188860e+05
        -2.2723820427621651e+05 -1.4903359870129626e+06
        -1.2455396304148436e+05 -1.1155747495469900e+06
        -9.5164619996678666e+03 -1.0272643539702215e+06
        4.8206229654789502e+06 1.0204150742334418e+05
        2.0034530061619224e+06 4.7835637835952279e+05
        4.5516999460493983e+05 1.1307250696587145e+05
        1.2200992361034630e+06 -4.8777944415598852e+05
        4.7605495684922021e+05 -3.8910181432706711e+04
        1.8522354360870906e+05 1.3127738283424363e+07
        1.4094994002444558e+06 2.9799872944553783e+06
        1.8589382345223650e+06 -2.2937633266583188e+06
        -1.5233284104468727e+06 1.3816921197422196e+06
        8.0727258362457890e+05 2.9663258243983532e+06
        5.6680614476320532e+05 -2.1389101233213441e+05
        -2.8892603143163573e+05 -3.0885903221781924e+05
        2.7142199135760823e+05 1.2256479653516263e+06
        1.3546060329583706e+06 1.3783701109712552e+06
        -1.5010772522723218e+06 -2.2661439699939997e+06
        -2.5724713105209998e+05 1.1327958189903363e+06
        5.9103898273084604e+05 -2.5999173251600662e+05
        -1.5928394610733315e+06 -2.0899922153765918e+05
        3.9806696091629291e+05 5.5705454462439602e+05
        -1.3224329358512035e+06 8.6286146315596264e+05
        -8.3108481759961275e+05 1.5152088700359967e+06
        4.8190843063980096e+05 1.0382596674938661e+06
        -3.7242110912670335e+05 5.7235424771574780e+05
        7.0199260297266499e+05 1.4439940892994138e+06
        1.5713601863628169e+05 -1.6897504483842077e+06
        -1.6698129194919876e+05 1.0204150742334418e+05
        5.5168892179246983e+06 2.4281743226953369e+05
        -7.7774132560797979e+05 -6.1651580050614022e+05
        8.1619522486240766e+05 1.1647369383689535e+06
        -2.1992757023543124e+06 -5.0781054039595241e+05
        -1.2952991500040374e+06 -6.5740367867249739e+05
        3.3915827856539786e+06 -3.8239517852120479e+06
        1.4744654345987304e+06 -1.6677033523174040e+06
        7.5383137740361108e+05 7.4412943732909719e+05
        -2.5866895865080585e+06 2.7397660152653698e+06
        1.8410652602139178e+06 4.0141236605461473e+06
        1.3390557454576690e+06 1.0442485580343514e+05
        2.1921227236720608e+06 -2.7960012771779744e+04
        1.3049773738650931e+06 -8.8463037926248636e+05
        1.7435523987221208e+06 6.5265987965092377e+05
        -9.8093511174339917e+05 -1.4159282282250444e+06
        -5.4718685271453147e+05 -5.8948214642494405e+05
        -1.0025669458098914e+06 -1.6863303946046103e+05
        -2.3488419276894340e+06 2.0860720039619892e+05
        -6.1552919528441655e+05 7.6042829652734357e+05
        -6.0809802956663433e+05 5.9039062534395998e+04
        4.0903105475075805e+05 1.1983642232511363e+06
        1.0262347287744368e+05 2.8897867503969028e+03
        3.9958491020392149e+05 -2.4826469790489147e+06
        -3.0531061918039602e+05 2.2113753148268405e+05
        -3.1627503514670406e+05 -1.5965137017124170e+05
        2.0034530061619224e+06 2.4281743226953369e+05
        7.4530388711520191e+06 1.1104418284402753e+06
        4.5106982281812001e+05 3.0459008896256518e+05
        2.1688365835348275e+05 1.5112221001990471e+05
        -7.3471977426081910e+04 -1.0816651261150501e+05
        -1.2392959859813817e+06 -1.8902462305875900e+06
        2.4236673844827281e+05 -7.8468722788727074e+05
        1.2875872986376996e+06 -2.8875095338978199e+05
        2.6990359067103108e+06 2.0896940369727090e+06
        1.8756051619944675e+06 -3.4553112335238992e+06
        5.4749619268847175e+05 -2.3169083755097440e+06
        1.0058721685989578e+06 -1.4208274144726507e+06
        1.4388436688560396e+06 -3.4807926426955312e+06
        -1.6284759448540555e+06 5.7102873575046787e+05
        1.0889661975975581e+06 -5.1922356083141197e+05
        -1.7220849892983658e+06 1.1111216184971815e+06
        -6.1336330754390033e+05 3.2311984718993184e+05
        2.7718850351203833e+05 -1.1372303532160781e+06
        1.0361368664357613e+06 -7.8102985741294432e+05
        5.6272322601467627e+05 8.3879573512560339e+05
        -8.5083121705199603e+05 -1.4573087567778258e+06
        -3.1820034643761726e+05 -1.2792464951413623e+06
        7.8343029425807763e+04 -7.4805456479280931e+05
        -1.0070926253730779e+06 -1.0327273086723784e+05
        1.4633988047806676e+06 -1.2176925882814107e+06
        1.8502964299639687e+04 4.7835637835952279e+05
        -7.7774132560797979e+05 1.1104418284402753e+06
        5.0773533645498659e+06 -6.9088649690305023e+05
        -1.5193525150424862e+05 4.4551694031164440e+05
        6.5326613232496323e+05 4.1672368495836825e+05
        -7.5473702847115591e+05 -9.3243165960730938e+05
        -1.5092834116615862e+07 1.4898904909985727e+06
        8.6203147095469921e+05 -1.4947680449989531e+06
        -4.5744431470384682e+06 -3.3599373911097425e+05
        -1.6461083951383850e+06 -1.3922965652020669e+06
        -2.8558616557651944e+06 -8.2318483793457842e+05
        1.5162318590779533e+06 -6.3341808785446081e+05
        -8.4106893821754656e+05 -1.3453158412886474e+06
        6.6981306808743358e+05 -3.4556482717223634e+05
        -1.4647268837147914e+06 7.4156977556014445e+05
        -8.8209034088108921e+04 6.3080706736626057e+05
        -1.7381541398213578e+06 6.5316837963820173e+04
        1.7649868550527841e+06 8.3635905772972808e+04
        -6.5197799555118929e+05 -3.5672407017027179e+05
        -6.5830912257139385e+05 9.5966744834691181e+05
        -2.0654285790573827e+06 -1.0236937580659203e+06
        -4.5963601486057567e+04 9.4541314109317539e+05
        -8.3261172098623007e+05 -1.4813638766083893e+05
        1.1727554911126550e+06 1.7389311041475541e+05
        1.1506740889592671e+06 -1.6076270325421658e+05
        1.2626551786962745e+06 4.8580025428955624e+05
        4.5516999460493983e+05 -6.1651580050614022e+05
        4.5106982281812001e+05 -6.9088649690305023e+05
        4.2403287777551124e+06 -9.0151047962446846e+03
        2.5533569305977473e+05 -5.0189855524292326e+05
        6.4645419363806141e+05 -9.5962614011638425e+05
        -3.8357914002076566e+05 -4.3097199742092192e+05
        -4.3837736503880797e+06 1.6638000242568387e+06
        1.5904036810884462e+06 -5.4669858292479217e+06
        6.7071670002420025e+05 9.4010239162697969e+05
        -7.4601892053884629e+05 -1.0480468088079415e+06
        1.0637618718983340e+06 -3.3659795386246680e+06
        -1.1449290467644313e+06 1.1925348748393697e+06
        -3.3285158655840304e+05 1.3476064847816916e+06
        -4.8120028491019225e+05 1.1041852528210864e+06
        4.5845804615032190e+05 -1.2184714713385506e+06
        1.4859163401991883e+06 -1.1107102614092627e+06
        -4.8328261214006122e+05 1.3770407938870394e+06
        1.3770212323667621e+06 1.5551764942023426e+05
        1.1051042487847034e+06 8.4683289140905865e+04
        -5.7073817262574052e+05 3.6328879768663895e+05
        5.9238223890961788e+04 -2.0652532788724027e+04
        3.6203016419540497e+05 1.5378648926705772e+06
        -3.1532215819254570e+05 -5.5853780533451308e+05
        -2.5893748175814224e+04 -1.0908718964040894e+06
        -5.0391762792768201e+05 -1.4076955006351073e+06
        1.3926000962890354e+06 1.1307250696587145e+05
        8.1619522486240766e+05 3.0459008896256518e+05
        -1.5193525150424862e+05 -9.0151047962446846e+03
        5.3187320694750445e+06 1.6641442056266540e+06
        2.5920393044441508e+05 1.2864425669428660e+04
        6.7053145202433970e+05 -1.2136905266188383e+06
        -2.7297834484786522e+06 3.5409405071806344e+06
        7.3205833469183301e+05 -2.5163793488209741e+06
        -2.1676705854793838e+06 2.5743896530674514e+05
        1.8545398242605748e+06 4.5834328135522845e+05
        -1.5392013636282049e+06 2.8300121492537553e+05
        -1.0967116725430177e+06 -6.0731002930391952e+05
        3.0232551154673001e+05 8.3483185666454583e+05
        1.3239999996905706e+06 2.0571035748072441e+06
        1.2589338691581131e+06 -2.7363951087612187e+05
        2.2716745427937817e+05 8.9094941024121782e+05
        -3.8050279563317791e+05 -6.5061333566263318e+05
        -3.1174105325254772e+04 -8.2396252381767248e+04
        -1.0563613661334936e+06 -2.8791849153106508e+05
        -6.8745261861554184e+05 1.0000118762439863e+06
        -1.1678251711101127e+06 -3.8422223600689985e+05
        6.0185059726598836e+05 8.5529636427411949e+05
        1.2225619766018565e+06 8.1220015221303084e+05
        -1.7021186001510865e+06 8.0707469074334367e+04
        -1.0928467308116570e+05 -1.6363262455990335e+06
        -1.1644259151806489e+06 4.1454755974621943e+05
        1.2200992361034630e+06 1.1647369383689535e+06
        2.1688365835348275e+05 4.4551694031164440e+05
        2.5533569305977473e+05 1.6641442056266540e+06
        5.0140764466424435e+06 -7.5258732912109676e+05
        1.4082068349794999e+06 -1.0903821314384018e+06
        -3.7748210115066776e+05 4.5431116255066656e+06
        1.5170686901311080e+06 -6.4367069591765804e+05
        -3.5155701061977423e+04 -1.7834785367494430e+06
        1.8831943916983681e+06 1.3575041202644743e+06
        1.0725607370080194e+06 -1.8124632919466104e+06
        -6.4517696504482150e+05 -2.0036706274676626e+05
        -1.6721687923756591e+05 1.7340593712268281e+04
        -1.4266088984133895e+06 4.8126775025347795e+05
        -1.5572982392800143e+06 -3.7619152252208348e+05
        1.9615845240669320e+06 1.0323574056865356e+05
        -1.1845888241674481e+06 2.4239497095196141e+05
        -6.2687438776725181e+05 -5.5789238388408930e+05
        2.2071746703301864e+06 2.2241993607179765e+05
        -3.8345305271528196e+04 1.3297630328724375e+06
        -3.7301745558033092e+05 2.2444405686793401e+05
        1.0590748175516806e+06 3.2600026995694090e+05
        -2.1330720553788776e+05 2.0279776940688008e+05
        9.0282862860266771e+05 2.0170367652285055e+05
        -2.2281811825984891e+05 -1.5163632146414996e+06
        6.0649246115872869e+04 1.9874937733000203e+05
        5.3909223555703717e+05 -4.8777944415598852e+05
        -2.1992757023543124e+06 1.5112221001990471e+05
        6.5326613232496323e+05 -5.0189855524292326e+05
        2.5920393044441508e+05 -7.5258732912109676e+05
        4.3093464678831659e+06 -1.5776593625334902e+06
        1.0256300428569221e+06 5.7297511094293895e+05
        1.4693744373187390e+06 1.9302831089085015e+06
        3.2707204084508121e+03 -1.5692479122992167e+06
        -1.8934963753918791e+05 -1.0664319193237252e+06
        -1.1067292845374024e+06 -8.0906270275048516e+05
        -2.3474930641113510e+06 2.1757871004462615e+06
        4.3434671469519893e+05 3.1885551286914153e+04
        -5.9522831008724682e+05 8.5267542614900065e+05
        9.0327917187236890e+04 1.0257034690239960e+06
        7.8438428345237719e+05 4.9664780635772622e+04
        -2.4147594533954805e+05 5.5179505765152443e+05
        -5.8981578861316189e+05 -2.7642047521219670e+05
        6.3901526148370479e+05 -2.7579007760081446e+05
        1.7322144417725963e+05 3.4528008687122434e+04
        -9.0253398456485989e+05 1.0388200941640181e+06
        -1.6925563444171962e+05 4.9455784002441046e+05
        -8.3914722421835898e+05 -6.4569502031193231e+05
        -1.1008480950959190e+05 -1.2190090064496765e+05
        -1.6462414025710078e+06 -1.4201603380709398e+05
        4.6355242137588398e+05 -4.4527652917682863e+05
        1.8873898319137204e+06 -2.4724842659612279e+05
        4.7605495684922021e+05 -5.0781054039595241e+05
        -7.3471977426081910e+04 4.1672368495836825e+05
        6.4645419363806141e+05 1.2864425669428660e+04
        1.4082068349794999e+06 -1.5776593625334902e+06
        3.8666944404393369e+06 -6.2809456801006431e+05
        -1.0467223172104638e+05 4.2431283791974289e+06
        6.7862590740570780e+06 1.0767090779495593e+06
        -5.5320429069444146e+06 9.7888218523332616e+05
        -1.6184286794920703e+06 -2.0016012247095420e+06
        -4.2785134742352145e+05 2.0242718130717159e+05
        6.3377810308107245e+05 6.4468193332320719e+05
        6.4176175657250697e+05 -1.3203744241288514e+05
        3.2112135412952048e+04 2.8366284663830278e+05
        -3.7054932396957558e+05 -5.7607770658212760e+05
        7.1684903741410817e+05 1.7145826223516890e+06
        6.0846728867559787e+05 6.2548850993682281e+05
        -1.0253865372651577e+05 9.3098039258256461e+05
        -7.5989170406895375e+05 7.9044984072245529e+05
        -6.6681736347806756e+04 1.8511076404966065e+06
        -2.7357620396672568e+05 1.5905898430532771e+06
        5.1192081415686267e+05 -4.1333484416304738e+04
        -1.2810378351516259e+05 1.0750421240163799e+06
        -2.5803798682091958e+06 5.1378682737064699e+05
        5.7779460040291422e+05 9.1496334241466597e+04
        -2.8531424114938534e+04 -8.9616452982550836e+04
        -6.0729469549684599e+05 -3.8910181432706711e+04
        -1.2952991500040374e+06 -1.0816651261150501e+05
        -7.5473702847115591e+05 -9.5962614011638425e+05
        6.7053145202433970e+05 -1.0903821314384018e+06
        1.0256300428569221e+06 -6.2809456801006431e+05
        5.8316759124942236e+06 -5.0761262750777986e+05
        -3.8265796289617438e+06 9.0670145334103238e+05
        -1.4972834085631974e+06 -3.0409693071197835e+05
        -4.7137707124641072e+05 1.7676360809374342e+06
        1.0029200431870810e+06 -5.3524716166145401e+04
        2.3366935602833768e+06 -5.6536045444266172e+05
        1.5336393459352907e+06 1.3132958940879845e+06
        -3.1895145443413884e+05 -8.0683695222297544e+05
        -1.4981850902762543e+06 2.8549555393454985e+05
        -9.0580159141568723e+05 2.0490790738173290e+06
        1.5209545562464364e+06 2.2393805495933415e+06
        -6.1952290311714693e+05 -3.8030436169487651e+05
        5.0401468143066810e+05 1.1885975493412476e+05
        -2.5318905231594632e+04 2.4889314606726123e+05
        3.2265724322570255e+04 5.3755594135959656e+05
        -1.4214775912151259e+05 7.2278716595659847e+05
        7.5014806613777764e+05 4.4223238703592017e+05
        -9.3843813576080813e+05 -3.6375589413679315e+05
        -1.9338915972780378e+04 8.2927646008661995e+05
        5.5921453141601221e+05 -9.3231915809587599e+05
        -8.5439314355006267e+05 -1.0537804471513154e+06
        1.8522354360870906e+05 -6.5740367867249739e+05
        -1.2392959859813817e+06 -9.3243165960730938e+05
        -3.8357914002076566e+05 -1.2136905266188383e+06
        -3.7748210115066776e+05 5.7297511094293895e+05
        -1.0467223172104638e+05 -5.0761262750777986e+05
        4.1915639865030758e+06</data></_>
    <_ type_id="opencv-matrix">
      <rows>51</rows>
      <cols>51</cols>
      <dt>d</dt>
      <data>
        1.3521104966426067e+09 2.8778945506140053e+07
        -1.9301699849741463e+07 3.1770407636666328e+07
        -3.8914147182733282e+07 1.9878801717978463e+07
        9.1485310493672714e+06 -2.4073167336152315e+07
        -6.9578582275644466e+06 -1.7436750901794642e+07
        4.0016358905712767e+06 6.4122202521717418e+06
        9.9169490407742281e+06 2.3212034788042273e+07
        1.5632374264126257e+06 -1.5209170640089812e+07
        -1.3582038309007982e+07 3.1183584842137955e+06
        2.1833132253603323e+05 1.6381760331984945e+07
        -4.0471504756793566e+06 -8.9981039199680369e+05
        1.0015955155798160e+06 5.7874055667601107e+06
        -8.6851394732210767e+06 -2.4680940165260285e+06
        -1.0174001910709171e+07 1.2733533245769056e+07
        4.6591920719586173e+06 -4.1156758580840435e+06
        -3.5082161515523023e+06 -5.1791993618634995e+05
        -1.0374339311136730e+07 -1.0436344704626139e+07
        2.9269453806638978e+06 -1.7063418535513245e+05
        9.1774621608283464e+05 6.3838862367142169e+06
        -5.0135580734983617e+06 -2.0772382020867795e+07
        -2.2358546125778202e+06 -1.3128113738723338e+07
        -3.3907609733825298e+06 1.8896768051064368e+06
        1.5091385300554875e+07 4.3301402316282596e+05
        2.7332769807016617e+06 -4.5417662905640844e+06
        -1.4694540029968163e+06 -4.2432845855763461e+06
        3.8267341098896698e+06 2.8778945506140053e+07
        4.7738944047749549e+08 -7.1271998481978439e+06
        1.5236004913523294e+07 1.7193740869329434e+07
        6.3348510423269141e+06 -7.4454713956521638e+05
        5.9093876306854300e+06 -9.7105085084074829e+06
        3.8047842014370644e+06 -1.8840195307129021e+06
        -4.2508448724312317e+06 -1.5071099579542167e+07
        3.4047793040278391e+06 -2.6057892771082143e+06
        3.7862166497870651e+05 2.3596310080456790e+06
        6.2223071988480398e+05 2.2736746352894977e+06
        1.2163034635604173e+06 -8.7001058072000612e+06
        6.6691049161877381e+06 -8.0098381508824658e+06
        2.7685373178239260e+06 5.9478700106812827e+06
        -7.3695567127730092e+05 -7.7559819961091485e+06
        6.9458403454546295e+06 -5.1889584875616487e+06
        -2.2837475506625408e+06 7.5581159458838785e+06
        4.7687866167410798e+06 5.0484662401042134e+06
        1.1440647716309393e+07 5.1176072009288799e+06
        1.5069665584784746e+05 -6.4970117800805345e+06
        5.3389790496883560e+06 -4.0778029859552789e+05
        -3.5546778250979842e+06 -4.2726954288369734e+06
        -1.4093954330887070e+06 3.8240740613040682e+06
        -2.4239888203372364e+05 -1.4896595394327308e+06
        4.3832987357372930e+06 -3.5413790042370241e+06
        -1.5166935212403843e+06 -1.9304560182017128e+06
        -6.7865266925213691e+06 -9.0634514437741833e+05
        -1.9301699849741463e+07 -7.1271998481978439e+06
        2.8585027560249197e+08 1.7623839832198728e+07
        6.4724194690358778e+05 -8.7109326813567057e+06
        -1.2738921863124322e+07 -3.6098004251865074e+06
        -9.4118479747876637e+06 6.6387569293245208e+06
        4.0082765634514345e+05 1.3600729132650670e+07
        -3.3736410133325262e+06 5.8438878561936738e+06
        5.9287667965923846e+06 1.4988707153191324e+05
        -3.5477998978212522e+06 -2.3478492096836972e+06
        8.6563223514070790e+06 -2.9337797395911929e+05
        -6.0033634385306491e+06 -3.8580401622303929e+06
        2.2774177761768783e+05 1.8649728307072045e+06
        4.9093268937243316e+06 -3.2716368473562319e+06
        -3.8635834999518865e+06 6.4324249041199498e+05
        1.9636280834117383e+06 5.2880363245367119e+06
        -2.3992854596729469e+06 -9.0548575929224666e+05
        4.3861001300632656e+06 3.6832531352792494e+06
        -1.9547945578826219e+06 2.1911544066045317e+05
        -1.9781402159037804e+06 -4.0868140245570929e+05
        -6.3740273305694805e+04 1.8683980727443607e+06
        -2.5465338847824796e+06 -2.9798271977163595e+06
        -1.4745075989225293e+06 7.8465870282686455e+05
        -8.6196956628715480e+05 -1.6637788603806053e+06
        -7.3180878845514823e+05 6.4371268050241983e+05
        -3.3222298416620470e+03 -1.0767953680148521e+06
        1.4972662826445214e+06 3.1770407636666328e+07
        1.5236004913523294e+07 1.7623839832198728e+07
        2.2129851584731829e+08 2.8924366513945293e+07
        -1.8196605386833744e+06 -7.2144669773043087e+06
        7.4031547238032632e+06 -6.6146673191164602e+06
        -2.6374413157712016e+06 -5.0563076008326681e+06
        -1.5052138606507704e+07 1.0934575280659446e+07
        -3.1808111496884725e+06 -2.3925179928370088e+05
        4.3764675424579326e+06 -1.3293749234004160e+06
        -3.5684898062608540e+06 4.7037827655218784e+06
        8.7246624428609591e+06 2.2493998072140673e+06
        1.7157903807333061e+06 3.4064256612718687e+06
        -5.5593505766614350e+06 -2.0564847563326191e+06
        2.2461959049115060e+06 1.5631591251562261e+06
        5.6744411898357631e+05 1.2566082400039153e+06
        1.5124074998500117e+06 -4.2805403659061305e+06
        2.8745687554699695e+06 -2.4768602364986031e+06
        2.6680867357079475e+05 -1.5503768639539378e+06
        1.9062807993606252e+06 7.0080595278030569e+06
        -2.3511725271889893e+06 -3.3743921503132605e+06
        1.2646044184237015e+06 3.5140961974160573e+06
        -1.8590753920410257e+06 1.6676480980291055e+06
        -1.2875682213914457e+06 1.4947785788433584e+06
        -1.5904194951289550e+06 2.5164244007983441e+06
        3.5080114255433786e+04 1.5691469363586332e+06
        5.5320968066937365e+06 3.0398466889762448e+05
        -3.8914147182733282e+07 1.7193740869329434e+07
        6.4724194690358778e+05 2.8924366513945293e+07
        1.2641179508395317e+08 -1.7695953903031625e+07
        1.1768320621762101e+07 -8.4910530369381364e+06
        -4.5939068556608893e+06 9.4180201391378266e+05
        8.4993166322081052e+06 9.7812062628459278e+06
        -7.3207418305922942e+06 3.7874391672879593e+06
        7.3295369983741292e+05 -6.1108908852601005e+05
        -1.8097971656367537e+06 8.9083045407103095e+06
        -4.1753398136787694e+06 6.6029383148549572e+06
        -5.6928178842440564e+06 -2.5183126761646173e+06
        -8.0512468811464251e+05 -7.3917200757839659e+04
        -1.1532359047798279e+06 1.9856004255788722e+06
        2.5518820668511153e+06 -1.4051347922952671e+06
        9.2354703189247451e+05 2.1702067857864141e+06
        4.4031606342533613e+06 -1.5680314615634657e+06
        -4.1149780338634166e+05 -3.0619309973162599e+06
        4.0662516211201274e+05 8.1692853986427933e+05
        2.9489176144834566e+06 2.1045759774311790e+06
        -3.8844882720424270e+04 1.7669616048269873e+06
        -1.3291776692936420e+06 2.2937925581779070e+06
        -7.5372951960337581e+05 2.8872997923188825e+05
        4.5744103888157476e+06 5.4669418309081066e+06
        2.1676955547379018e+06 1.7834961299962534e+06
        1.8938753384823294e+05 -9.7893297382488765e+05
        4.7152704508197319e+05 1.9878801717978463e+07
        6.3348510423269141e+06 -8.7109326813567057e+06
        -1.8196605386833744e+06 -1.7695953903031625e+07
        1.1830342222136702e+08 -7.4940852270846302e+06
        -4.2455678636263236e+06 8.6714032863852996e+06
        -4.6211807156463629e+06 6.5580133968570922e+06
        2.7032749698504256e+06 1.1736088052205686e+06
        2.7959681505197720e+06 -6.6576039205831743e+05
        -2.2155536518554809e+05 2.3312410283313519e+06
        -3.5074824735128414e+06 2.6204901273272345e+06
        3.7635228286503688e+06 -2.9381649471177312e+05
        2.1464359109358657e+06 -3.8832533784694877e+06
        -3.3141875324772028e+06 -1.8764554570518327e+06
        -4.3704497848966857e+04 -2.6522978559360313e+06
        -1.0796065034383126e+06 4.6596276241085473e+06
        4.4144195158985686e+06 -5.8049700970058597e+05
        8.0984555123150977e+05 -1.4021711463899638e+06
        1.8160552815172351e+06 -3.4686805772086745e+05
        2.4869226783554140e+05 2.5375509160609012e+06
        -8.9393765356815606e+05 2.4697833763734689e+06
        5.3454375503209024e+05 -3.6161648993242756e+06
        1.5232914974655642e+06 -7.4406382444237149e+05
        -2.6989886738191973e+06 3.3606252423850936e+05
        -6.7072846345096407e+05 -2.5746784974987060e+05
        -1.8831488126763362e+06 1.0663942646620953e+06
        1.6184408570697408e+06 -1.7677112069740375e+06
        9.1485310493672714e+06 -7.4454713956521638e+05
        -1.2738921863124322e+07 -7.2144669773043087e+06
        1.1768320621762101e+07 -7.4940852270846302e+06
        1.0400944288789062e+08 -4.4146096502592415e+05
        5.7949828775371034e+06 2.4466113490055669e+06
        -1.0875894304114319e+06 5.9873765295793228e+06
        9.0817475799200591e+06 -5.6486816458427976e+05
        4.2701153842229750e+06 -1.4101448013872523e+06
        -2.6826410903946217e+06 -6.0403112167038228e+06
        2.7821150192121388e+06 -2.5434555901599056e+06
        -1.8770183111584184e+06 -9.6360851155013777e+04
        1.9415918598620393e+06 -9.4603493253836175e+04
        -2.6144706645635273e+06 -5.8454124481334351e+04
        -2.0241487257916322e+06 2.5535041915213289e+06
        8.0952499488915154e+05 2.8628411320684617e+06
        -1.2237963234005428e+06 8.3492461764862132e+05
        -1.8524344805277011e+06 4.3415864527528943e+05
        4.6505713393491693e+04 -3.6710985518936138e+05
        2.9853017062026756e+06 -1.6813543089313663e+06
        1.6224518435869385e+06 5.3608217987812660e+05
        -1.9977719594055465e+06 -1.3816750053821828e+06
        2.5866975923288888e+06 -2.0896709466670365e+06
        1.6461014487575167e+06 -9.4005992058433429e+05
        -1.8545547002515006e+06 -1.3574906510167907e+06
        1.1067356314394427e+06 2.0015725840630988e+06
        -1.0029464576741678e+06 -2.4073167336152315e+07
        5.9093876306854300e+06 -3.6098004251865074e+06
        7.4031547238032632e+06 -8.4910530369381364e+06
        -4.2455678636263236e+06 -4.4146096502592415e+05
        9.7724335595992759e+07 3.8674418867014102e+06
        -3.0683006691271062e+06 -3.6854475282829562e+06
        4.0892475635703355e+06 -1.1064227818933523e+06
        1.4061765339546222e+06 4.6335574974039588e+06
        -1.2822738143020701e+06 -1.4274911315605938e+06
        -1.7530887485728899e+06 -5.3622071902216447e+05
        -6.6677310319352709e+05 -2.2436326611378565e+06
        8.7202730164171662e+05 4.4768621271094121e+05
        -1.9601113657652901e+05 1.0655255365199754e+06
        -8.1361608808951790e+05 8.6195453649904137e+05
        1.8760236937195249e+05 -4.8220152165322192e+05
        1.5471106062023621e+05 2.0946508184797037e+06
        -3.3798804216830881e+05 -2.1066286461923192e+06
        -1.0614750759787443e+06 1.5110488533050935e+06
        1.7361627698325552e+05 1.4454848374581798e+06
        1.1431016107234901e+06 1.9352455649760384e+06
        -4.6412446159439906e+05 1.2346523190175288e+06
        -8.0728615276683681e+05 -2.7397899305799315e+06
        -1.8756093416580420e+06 1.3923025371708791e+06
        7.4597667280428950e+05 -4.5835550494198850e+05
        -1.0725953024594495e+06 8.0906051048406551e+05
        4.2785648561702727e+05 5.3508372129740659e+04
        -6.9578582275644466e+06 -9.7105085084074829e+06
        -9.4118479747876637e+06 -6.6146673191164602e+06
        -4.5939068556608893e+06 8.6714032863852996e+06
        5.7949828775371034e+06 3.8674418867014102e+06
        7.0025144206670463e+07 6.6439986179362480e+06
        2.8579079012613166e+06 -2.8305752758059483e+06
        -6.2348449280721545e+06 2.8322350919558285e+06
        -7.7384072748120432e+05 1.5858374925362286e+06
        -4.8211485285384236e+06 -5.7166119902063021e+05
        -1.5402631713086755e+06 2.4705711547104432e+06
        -2.2200242600771273e+06 1.0222168609372904e+06
        4.4749607830451336e+06 -6.6175222245887155e+05
        4.9505739654701855e+06 8.9927147330472083e+05
        1.6674580622930699e+06 -1.1864343134685769e+04
        -2.0942618778829761e+06 5.9325218733318243e+05
        -1.1684863474574336e+06 -1.4153386838129973e+06
        3.3914488407227718e+06 1.1920405821012268e+06
        -2.3287186423918614e+06 9.7526072279628832e+05
        -2.6641981437411997e+05 8.5222523838340584e+05
        2.1281574002336431e+05 1.7250328780674215e+06
        2.1383755458657835e+06 -2.9663558375963392e+06
        -1.8410638541417127e+06 3.4553160165739851e+06
        2.8558517135300785e+06 1.0480622004283983e+06
        1.5392090680431179e+06 1.8124596767159379e+06
        2.3475148310628468e+06 -2.0241211733916716e+05
        -2.3366794559047217e+06 -1.7436750901794642e+07
        3.8047842014370644e+06 6.6387569293245208e+06
        -2.6374413157712016e+06 9.4180201391378266e+05
        -4.6211807156463629e+06 2.4466113490055669e+06
        -3.0683006691271062e+06 6.6439986179362480e+06
        6.0992461444057092e+07 -4.5028228762165895e+06
        -6.7176847354341084e+06 6.3043691059805714e+06
        -7.0139134247790799e+06 -9.2010143399977812e+05
        -4.5250807006115625e+06 5.9338845512855183e+06
        2.5047644490035754e+06 -3.4601063331191065e+06
        1.6898521822019040e+06 -5.8169255980369123e+05
        1.0305930236951127e+06 3.3197417549617346e+06
        1.7568481284596419e+06 2.2864121840307927e+06
        1.9043657646092604e+05 -2.7587363930765144e+05
        -8.4110713649012300e+05 -1.5277787201451892e+06
        -1.9643135195927583e+06 1.2393440016461443e+06
        1.2712162093671991e+06 -4.2240931977650616e+06
        -4.7214662212328427e+05 1.6855452394681745e+06
        2.6686891223552320e+06 1.8128995185092988e+06
        7.0712308570807206e+05 4.1213719199387752e+05
        -2.5824892481059412e+05 -1.5696592566666566e+06
        -5.6678294633047434e+05 -4.0141048170403023e+06
        -5.4747981255504605e+05 8.2318541006720776e+05
        -1.0637647301640874e+06 -2.8299505870062509e+05
        6.4519851346265071e+05 -2.1757879654536946e+06
        -6.3378389206028194e+05 5.6535206482073525e+05
        4.0016358905712767e+06 -1.8840195307129021e+06
        4.0082765634514345e+05 -5.0563076008326681e+06
        8.4993166322081052e+06 6.5580133968570922e+06
        -1.0875894304114319e+06 -3.6854475282829562e+06
        2.8579079012613166e+06 -4.5028228762165895e+06
        3.4072582078362815e+07 -4.9499719005072750e+06
        -4.7353524020017609e+06 -1.3882264435499590e+06
        6.9680654390766332e+05 5.7476072488006740e+05
        1.7292505733582906e+06 2.3516077129415553e+06
        3.1238561194540346e+06 -1.4945470516497786e+06
        -1.3888251622117686e+06 -1.1510239545246039e+06
        3.4204967578086043e+06 -1.7260985119841504e+06
        -1.8240207652507504e+06 1.6022974303538923e+05
        -3.6653572012539557e+06 -2.0767976316096210e+06
        4.1772094803662715e+05 4.8835369091042108e+05
        -2.8003883751349524e+06 1.7762974388671196e+06
        -1.2776612357886801e+06 -4.5606744452092936e+05
        1.6292523651892317e+06 -5.3690879231400322e+03
        -2.2673284207356032e+06 -2.9812694682911038e+04
        -5.7552180262169689e+06 -3.2167926060460340e+06
        -1.5273209955058726e+06 2.1389478437148395e+05
        -1.3390633943323155e+06 2.3169004201137852e+06
        -1.5162152942617917e+06 3.3659780005303132e+06
        1.0966975469788006e+06 2.0040367589581315e+05
        -4.3435081728895777e+05 -6.4470181318054674e+05
        -1.5336334842874496e+06 6.4122202521717418e+06
        -4.2508448724312317e+06 1.3600729132650670e+07
        -1.5052138606507704e+07 9.7812062628459278e+06
        2.7032749698504256e+06 5.9873765295793228e+06
        4.0892475635703355e+06 -2.8305752758059483e+06
        -6.7176847354341084e+06 -4.9499719005072750e+06
        4.2130826270167127e+07 1.2065307976832287e+05
        -8.9588145076965131e+06 -2.8860433440354830e+06
        3.4655903430764894e+06 1.7645437173490976e+06
        9.2016179770572670e+05 -1.4742342851859608e+06
        3.9061141956963306e+06 2.5692043882523705e+06
        2.0322570686402442e+06 1.4379156761599905e+06
        4.1663709944811172e+05 -8.9696533654919965e+05
        9.3445077762758173e+05 -5.4486043776798365e+05
        -8.0095085199540597e+05 8.7985733474857197e+05
        -1.4616923455298385e+06 1.5460583989744426e+06
        1.3760971827925881e+04 -4.6932186105839134e+05
        1.1155617239560294e+06 5.9660949990682432e+05
        1.2425998769958972e+06 -2.1151995373437777e+06
        -1.5371312857557768e+06 2.4766616068052817e+06
        5.7378479298616550e+05 8.3688499814141472e+05
        2.8889285231053515e+05 -1.0441876198451541e+05
        -1.0058718224793652e+06 6.3339806627129996e+05
        1.1449064918948412e+06 6.0730191792703350e+05
        1.6722129964161362e+05 -3.1889542026062787e+04
        -6.4175196593607753e+05 -1.3133144212368198e+06
        9.9169490407742281e+06 -1.5071099579542167e+07
        -3.3736410133325262e+06 1.0934575280659446e+07
        -7.3207418305922942e+06 1.1736088052205686e+06
        9.0817475799200591e+06 -1.1064227818933523e+06
        -6.2348449280721545e+06 6.3043691059805714e+06
        -4.7353524020017609e+06 1.2065307976832287e+05
        3.3769346176600635e+07 -2.4279900614164462e+06
        -1.7108956172411188e+06 2.4528301751311943e+06
        -3.8524802958327318e+06 4.1090004781924966e+06
        3.7152465079281526e+06 -4.4669628279650258e+06
        -1.6284317621657643e+06 -1.7176079563072165e+06
        9.1170390558023541e+05 1.9901464691432414e+05
        -1.0569318814305179e+06 5.8637804285064200e+05
        -2.4229322864476154e+06 -4.1430700363717100e+05
        5.9591202517977683e+05 1.1484817390986171e+05
        2.4151644470411190e+06 4.1478863057226001e+04
        2.3576619636583142e+06 -2.4100607250883486e+06
        7.1023488667176897e+05 4.3790095499984326e+05
        -3.3347653593548164e+06 -1.4285237155667879e+06
        2.9355536413010443e+05 -3.6231242540566451e+06
        -9.6791028926451970e+05 3.0885210395436524e+05
        -2.1921185214366731e+06 1.4208257983135364e+06
        8.4106712542496738e+05 -1.1925238626036728e+06
        -3.0233431774015329e+05 -1.7334866975479119e+04
        5.9524021087249345e+05 1.3203048402884381e+05
        3.1896052122883283e+05 2.3212034788042273e+07
        3.4047793040278391e+06 5.8438878561936738e+06
        -3.1808111496884725e+06 3.7874391672879593e+06
        2.7959681505197720e+06 -5.6486816458427976e+05
        1.4061765339546222e+06 2.8322350919558285e+06
        -7.0139134247790799e+06 -1.3882264435499590e+06
        -8.9588145076965131e+06 -2.4279900614164462e+06
        3.7984678695792317e+07 5.9975937555070128e+05
        7.2431641657379689e+04 7.5899583074141713e+05
        3.1162196441170238e+06 -1.9766051343390993e+06
        -2.6808574162365147e+05 -7.2572084494126122e+05
        -1.8630988500970544e+06 3.6367856420405451e+06
        3.2405534751732480e+06 -1.0095461628693976e+06
        1.0040377182209926e+06 -6.3926098300263670e+05
        -7.3181072927656583e+05 3.3268821697256481e+05
        2.3476396038179705e+05 9.0307298373685405e+05
        7.2680769923121436e+04 -1.2822631607846976e+06
        -4.3011999565093976e+05 7.4966718794319557e+05
        4.1670940090581484e+05 -1.8121109056946847e+06
        -2.4337120837264569e+06 2.4041619821482329e+06
        1.6876381021586084e+06 1.4953748398825945e+05
        -2.7143882182308717e+05 2.7952795981373958e+04
        -1.4388435323605984e+06 1.3453107713428552e+06
        3.3285234273097431e+05 -8.3483834059945191e+05
        1.4266110327091021e+06 -8.5268186769597651e+05
        -3.2101981237622676e+04 8.0684134269892168e+05
        1.5632374264126257e+06 -2.6057892771082143e+06
        5.9287667965923846e+06 -2.3925179928370088e+05
        7.3295369983741292e+05 -6.6576039205831743e+05
        4.2701153842229750e+06 4.6335574974039588e+06
        -7.7384072748120432e+05 -9.2010143399977812e+05
        6.9680654390766332e+05 -2.8860433440354830e+06
        -1.7108956172411188e+06 5.9975937555070128e+05
        3.3161565064939857e+07 -3.8898582544306992e+04
        -2.1978968113421295e+06 1.8864562873285955e+06
        2.5172067160677211e+06 2.8541378586102286e+06
        5.2438937051290395e+06 2.8129516642057793e+06
        2.4865706566321598e+06 -1.2463871548952498e+06
        -2.0335513213136201e+06 3.2245002931741192e+06
        -1.8476509598152267e+06 2.3877383926360481e+06
        1.7668183397610649e+05 -2.4171862200133931e+06
        3.4523907841231616e+05 5.7081192642499111e+05
        -3.3214661577815739e+06 -4.8569710256041132e+05
        1.5306577970236796e+06 1.8414145365084236e+05
        -7.7585965026211552e+05 -1.3201771891205539e+06
        -3.1072037004013394e+05 7.0979786684812780e+05
        -8.9301929868821776e+05 -1.2256583212330271e+06
        -1.3049782013953256e+06 3.4807849861097885e+06
        -6.6981124940560199e+05 -1.3475952592138075e+06
        -1.3239903237580378e+06 -4.8126689417085459e+05
        -9.0325876351338680e+04 -2.8364988421055028e+05
        1.4981697916687077e+06 -1.5209170640089812e+07
        3.7862166497870651e+05 1.4988707153191324e+05
        4.3764675424579326e+06 -6.1108908852601005e+05
        -2.2155536518554809e+05 -1.4101448013872523e+06
        -1.2822738143020701e+06 1.5858374925362286e+06
        -4.5250807006115625e+06 5.7476072488006740e+05
        3.4655903430764894e+06 2.4528301751311943e+06
        7.2431641657379689e+04 -3.8898582544306992e+04
        3.4173431068810061e+07 2.1231897551371758e+06
        -6.4961157948632829e+05 -5.1150136147684436e+06
        -3.5085875367153510e+06 1.3753922527387785e+05
        2.5500782835920961e+06 2.8930079052863931e+06
        2.7426489083295260e+06 -4.4806713083789777e+05
        1.4165178427164047e+06 -6.3659401266503148e+04
        -4.9147177632883878e+05 1.4423050241155645e+06
        4.1781917515583953e+05 -1.3680486018283549e+05
        -2.2191566987493285e+05 -2.9498084242406064e+06
        -1.1110394891656851e+06 -1.4954939184037531e+06
        -2.1749736317198966e+06 2.2023638202063204e+05
        -7.0832161840852955e+05 -6.2346111952856928e+05
        -1.2449149901862589e+06 1.4401793530364125e+05
        -1.3545905291372451e+06 8.8463550527344039e+05
        1.6284764353332052e+06 3.4555615258983453e+05
        4.8120763721450767e+05 -2.0570948493691436e+06
        1.5573070688060441e+06 -1.0256995255952394e+06
        3.7056137450872874e+05 -2.8549335024380591e+05
        -1.3582038309007982e+07 2.3596310080456790e+06
        -3.5477998978212522e+06 -1.3293749234004160e+06
        -1.8097971656367537e+06 2.3312410283313519e+06
        -2.6826410903946217e+06 -1.4274911315605938e+06
        -4.8211485285384236e+06 5.9338845512855183e+06
        1.7292505733582906e+06 1.7645437173490976e+06
        -3.8524802958327318e+06 7.5899583074141713e+05
        -2.1978968113421295e+06 2.1231897551371758e+06
        2.8890774993119672e+07 -3.3313603423315240e+06
        4.3754021430529077e+06 1.2882996428089216e+06
        -4.0780000957397069e+05 2.3636999342004913e+06
        2.6495935946693341e+06 1.0371612320252180e+06
        9.4434798964209855e+04 9.3977177439709892e+04
        2.1009912576016579e+06 -7.3226528634210164e+05
        -2.2944450366143207e+05 7.2528116398395970e+05
        1.7480767725457039e+06 4.1877298260712804e+05
        -1.5048956207213341e+05 1.6023946500665904e+06
        2.4307459044699091e+04 -2.2871929440482950e+05
        -1.1968235085124061e+06 -1.5955853209349671e+06
        5.5390252215898782e+05 -7.1234388239422941e+05
        -6.7531491199089226e+05 -1.3783650304081584e+06
        -1.7435483325448993e+06 -5.7102711912864330e+05
        1.4647148667055815e+06 -1.1041645197226431e+06
        -1.2589338754609358e+06 3.7619391221375251e+05
        -7.8438845988945116e+05 5.7608128662374034e+05
        9.0580885598456324e+05 3.1183584842137955e+06
        6.2223071988480398e+05 -2.3478492096836972e+06
        -3.5684898062608540e+06 8.9083045407103095e+06
        -3.5074824735128414e+06 -6.0403112167038228e+06
        -1.7530887485728899e+06 -5.7166119902063021e+05
        2.5047644490035754e+06 2.3516077129415553e+06
        9.2016179770572670e+05 4.1090004781924966e+06
        3.1162196441170238e+06 1.8864562873285955e+06
        -6.4961157948632829e+05 -3.3313603423315240e+06
