<?xml version="1.0"?>
<opencv_storage>
<opencv_ml_svm>
  <format>3</format>
  <svmType>C_SVC</svmType>
  <kernel>
    <type>RBF</type>
    <gamma>5.0625000000000009e-01</gamma></kernel>
  <C>2.5000000000000000e+00</C>
  <term_criteria><epsilon>1.1920928955078125e-07</epsilon>
    <iterations>1000</iterations></term_criteria>
  <var_count>4</var_count>
  <class_count>3</class_count>
  <class_labels type_id="opencv-matrix">
    <rows>3</rows>
    <cols>1</cols>
    <dt>i</dt>
    <data>
      1 2 3</data></class_labels>
  <sv_total>54</sv_total>
  <support_vectors>
    <_>
      7.83555806e-02 1.19029731e-01 1.44763254e-02 0.</_>
    <_>
      0. 1.93933606e-01 1.05549157e-01 0.</_>
    <_>
      1.08537197e-01 1.18038937e-01 1.05502389e-01 0.</_>
    <_>
      3.85805592e-02 1.76701680e-01 6.40086904e-02 0.</_>
    <_>
      9.20864642e-02 1.92428544e-01 1.29266784e-01 0.</_>
    <_>
      1.68604583e-01 1.28227293e-01 1.05323851e-01 0.</_>
    <_>
      2.56439745e-01 7.35612959e-02 3.27296257e-02 0.</_>
    <_>
      9.39478353e-02 3.48650724e-01 2.60277718e-01 0.</_>
    <_>
      1.14229649e-01 2.52918750e-01 1.32567510e-01 0.</_>
    <_>
      1.22002497e-01 1.05352864e-01 1.87184457e-02 0.</_>
    <_>
      1.24145731e-01 3.05743158e-01 2.10463077e-01 0.</_>
    <_>
      1.20688438e-01 1.07106447e-01 6.24548122e-02 0.</_>
    <_>
      1.43137097e-01 1.28911823e-01 7.81607106e-02 0.</_>
    <_>
      2.00323775e-01 9.89068970e-02 5.96839935e-02 0.</_>
    <_>
      1.67380214e-01 1.11477487e-01 4.63383384e-02 0.</_>
    <_>
      1.42007157e-01 2.93461621e-01 2.03224480e-01 0.</_>
    <_>
      8.37707520e-01 6.76054060e-02 4.27781232e-02 0.</_>
    <_>
      1.21824242e-01 1.33736417e-01 5.68794124e-02 0.</_>
    <_>
      9.10023451e-02 1.90299630e-01 1.18108593e-01 0.</_>
    <_>
      1.65063307e-01 1.31244048e-01 1.08976483e-01 0.</_>
    <_>
      1.73677266e-01 1.16233461e-01 8.07377398e-02 0.</_>
    <_>
      2.02515453e-01 1.18083730e-01 7.60657713e-02 0.</_>
    <_>
      1.19043119e-01 1.35253713e-01 1.13007590e-01 0.</_>
    <_>
      2.03206375e-01 5.13597466e-02 6.81599323e-03 0.</_>
    <_>
      0. 2.81658798e-01 1.97673485e-01 0.</_>
    <_>
      2.15831518e-01 1.32111132e-01 9.53356847e-02 0.</_>
    <_>
      1.53899997e-01 9.21920687e-02 1.69411562e-02 0.</_>
    <_>
      9.50249583e-02 1.10751532e-01 7.66714104e-03 0.</_>
    <_>
      1.93428740e-01 2.94465780e-01 2.31450379e-01 0.</_>
    <_>
      8.66157115e-02 1.90097451e-01 1.13185480e-01 0.</_>
    <_>
      3.47818762e-01 1.69711575e-01 1.24300003e-01 0.</_>
    <_>
      3.47818762e-01 1.69711575e-01 1.24300003e-01 0.</_>
    <_>
      8.54947209e-01 2.21633408e-02 1.16915144e-02 0.</_>
    <_>
      1.48624003e-01 1.25473693e-01 7.47246742e-02 0.</_>
    <_>
      5.23044765e-02 1.89095929e-01 1.27357334e-01 0.</_>
    <_>
      1.31016448e-01 2.44579360e-01 1.26941115e-01 0.</_>
    <_>
      1.02539062e-01 1.04172163e-01 2.12855097e-02 0.</_>
    <_>
      1.28998637e-01 1.31817043e-01 6.91275895e-02 0.</_>
    <_>
      3.87013629e-02 1.75532639e-01 6.22525252e-02 0.</_>
    <_>
      3.87013629e-02 1.75532639e-01 6.22525252e-02 0.</_>
    <_>
      1.62505254e-01 8.47499967e-02 1.04253273e-02 0.</_>
    <_>
      2.86724865e-01 1.08674988e-01 8.30289796e-02 0.</_>
    <_>
      2.78165340e-01 1.12439089e-01 1.12066418e-01 0.</_>
    <_>
      2.78165340e-01 1.12439089e-01 1.12066418e-01 0.</_>
    <_>
      8.80324781e-01 2.83280332e-02 1.80485602e-02 0.</_>
    <_>
      1.08286910e-01 1.62386149e-01 1.25932693e-01 0.</_>
    <_>
      1.10279210e-01 1.27791196e-01 1.03887700e-01 0.</_>
    <_>
      2.86654502e-01 1.11650772e-01 9.73826274e-02 0.</_>
    <_>
      2.64827877e-01 9.60722193e-02 7.60657713e-02 0.</_>
    <_>
      1.65474102e-01 1.11800522e-01 5.00063226e-02 0.</_>
    <_>
      1.50121555e-01 1.19849980e-01 5.87568954e-02 0.</_>
    <_>
      2.50562370e-01 1.16236717e-01 8.51009712e-02 0.</_>
    <_>
      2.56889492e-01 1.17728457e-01 1.17726631e-01 0.</_>
    <_>
      1.72196254e-01 3.03161681e-01 2.35342190e-01 0.</_></support_vectors>
  <decision_functions>
    <_>
      <sv_count>10</sv_count>
      <rho>-1.6375020146369923e-01</rho>
      <alpha>
        1.7742886647371678e+00 2.5000000000000000e+00
        2.5000000000000000e+00 2.5000000000000000e+00
        2.5000000000000000e+00 -1.7742886647371678e+00
        -2.5000000000000000e+00 -2.5000000000000000e+00
        -2.5000000000000000e+00 -2.5000000000000000e+00</alpha>
      <index>
        44 32 16 11 6 51 48 41 30 31</index></_>
    <_>
      <sv_count>10</sv_count>
      <rho>-1.0938957333564769e-01</rho>
      <alpha>
        8.2375807986466010e-01 2.5000000000000000e+00
        2.5000000000000000e+00 2.5000000000000000e+00
        2.5000000000000000e+00 -2.5000000000000000e+00
        -2.5000000000000000e+00 -2.5000000000000000e+00
        -2.5000000000000000e+00 -8.2375807986465999e-01</alpha>
      <index>
        44 32 16 11 6 42 43 23 47 13</index></_>
    <_>
      <sv_count>47</sv_count>
      <rho>-9.7774943273785742e-01</rho>
      <alpha>
        2.5000000000000000e+00 2.5000000000000000e+00
        2.5000000000000000e+00 2.5000000000000000e+00
        2.5000000000000000e+00 2.5000000000000000e+00
        2.5000000000000000e+00 2.5000000000000000e+00
        2.5000000000000000e+00 2.5000000000000000e+00
        1.0646744157453258e+00 3.3245958974873663e-01
        1.7684683112150208e+00 2.3400403932208129e+00
        2.2833130535502595e+00 2.5000000000000000e+00
        2.5000000000000000e+00 2.5000000000000000e+00
        2.5000000000000000e+00 2.5000000000000000e+00
        1.2480977371889408e+00 2.5000000000000000e+00
        2.5000000000000000e+00 9.6294649933090970e-01
        2.5000000000000000e+00 -2.5000000000000000e+00
        -2.5000000000000000e+00 -2.5000000000000000e+00
        -2.5000000000000000e+00 -2.5000000000000000e+00
        -2.5000000000000000e+00 -2.5000000000000000e+00
        -2.5000000000000000e+00 -2.5000000000000000e+00
        -2.5000000000000000e+00 -2.5000000000000000e+00
        -2.5000000000000000e+00 -2.5000000000000000e+00
        -2.5000000000000000e+00 -2.5000000000000000e+00
        -2.5000000000000000e+00 -2.5000000000000000e+00
        -2.5000000000000000e+00 -2.5000000000000000e+00
        -2.5000000000000000e+00 -2.5000000000000000e+00
        -2.5000000000000000e+00</alpha>
      <index>
        5 53 52 8 9 51 50 49 48 2 17 18 19 46 0 24 25 41 27 28 29 1 37
        35 36 34 38 39 33 40 26 4 42 43 23 22 21 45 20 47 15 14 13 12 10
        7 3</index></_></decision_functions></opencv_ml_svm>
</opencv_storage>
