<?xml version="1.0"?>
<opencv_storage>
<opencv_ml_knn>
  <format>3</format>
  <is_classifier>0</is_classifier>
  <default_k>7</default_k>
  <samples type_id="opencv-matrix">
    <rows>163</rows>
    <cols>4</cols>
    <dt>f</dt>
    <data>
      1.65887028e-01 1.31969482e-01 7.27703646e-02 0. 1.83601990e-01
      1.30972743e-01 1.08731240e-01 0. 9.51510295e-02 1.38399139e-01
      1.04647689e-01 0. 2.69540489e-01 8.30108672e-02 7.23897144e-02 0.
      8.09276104e-02 1.92692444e-01 1.13419920e-01 0. 7.06304684e-02
      1.58681199e-01 6.29260838e-02 0. 4.95023161e-01 1.10028259e-01
      2.93102637e-02 0. 2.19576716e-01 1.23180971e-01 1.21028408e-01 0.
      2.53916025e-01 1.21616468e-01 3.30130495e-02 0. 2.02643231e-01
      1.17074579e-01 1.06883787e-01 0. 2.73402333e-01 1.93376362e-01
      9.28307399e-02 0. 2.78671890e-01 1.82986155e-01 9.22999978e-02 0.
      3.35159302e-01 8.16288367e-02 6.40687495e-02 0. 1.64369375e-01
      6.78955019e-02 2.58034188e-02 0. 3.73309106e-01 4.06750552e-02
      4.26254887e-03 0. 2.77812511e-01 1.81445226e-01 8.22999999e-02 0.
      1.57933876e-01 4.48075533e-01 9.96363629e-03 0. 2.19867364e-01
      1.23988353e-01 1.13011762e-01 0. 1.67906016e-01 1.27675235e-01
      1.03497542e-01 0. 5.07049501e-01 1.07129559e-01 5.11267558e-02 0.
      1.14388891e-01 1.69278085e-01 2.62808017e-02 0. 4.85392243e-01
      1.65352657e-01 1.19711243e-01 0. 4.57743317e-01 1.78090736e-01
      1.34878814e-01 0. 4.99373078e-01 8.11176002e-02 1.55975707e-02 0.
      1.70449361e-01 1.27812445e-01 1.05932623e-01 0. 2.03205839e-01
      1.40001014e-01 1.15479648e-01 0. 3.86888295e-01 9.51120481e-02
      7.79766068e-02 0. 2.61406243e-01 1.15150593e-01 2.85936296e-02 0.
      4.32063311e-01 1.20028913e-01 1.14357650e-01 0. 3.78240734e-01
      1.35242477e-01 1.04425482e-01 0. 2.15468749e-01 1.13813236e-01
      1.06883787e-01 0. 7.65093789e-02 1.97942957e-01 1.20921791e-01 0.
      1.44117653e-01 1.21921100e-01 5.62584214e-02 0. 1.68786839e-01
      1.09882370e-01 3.49583328e-02 0. 5.55989563e-01 9.33845937e-02
      1.85499992e-02 0. 9.14985955e-01 3.05590592e-02 1.20670488e-02 0.
      2.62390077e-01 1.32154316e-01 1.27485931e-01 0. 3.19564819e-01
      8.43853354e-02 5.93812503e-02 0. 2.14563444e-01 6.29209578e-02
      2.07044575e-02 0. 3.53649348e-01 1.09927602e-01 9.48593765e-02 0.
      3.72692317e-01 8.74105096e-02 8.51384625e-02 0. 1.21415593e-01
      9.37608108e-02 1.81102436e-02 0. 1.71125665e-01 1.09511949e-01
      4.27238904e-02 0. 4.31176811e-01 1.69334531e-01 8.99321139e-02 0.
      4.54053730e-01 1.43265709e-01 1.25436202e-01 0. 4.05575037e-01
      6.44083470e-02 5.73575236e-02 0. 3.16808790e-01 2.01122195e-01
      9.05210450e-02 0. 4.04638052e-01 1.15260787e-01 1.13419920e-01 0.
      2.99018174e-01 1.01722613e-01 8.52878839e-02 0. 6.93356171e-02
      3.44135702e-01 2.45838597e-01 0. 1.00000001e-01 1.33333743e-01
      7.09491894e-02 0. 2.87878066e-01 9.39219147e-02 5.61490208e-02 0.
      3.15738559e-01 9.70201120e-02 8.43501464e-02 0. 1.04208119e-01
      1.43002346e-01 6.15962483e-02 0. 4.75707412e-01 7.98373222e-02
      5.21684438e-02 0. 1.82601511e-01 1.18902072e-01 9.61922854e-02 0.
      1.70959890e-01 1.42201573e-01 1.13992162e-01 0. 4.49260116e-01
      8.27476457e-02 6.08169138e-02 0. 1.17125109e-01 1.65028423e-01
      1.12320468e-01 0. 7.55925834e-01 6.75828978e-02 2.74171848e-02 0.
      1.80172220e-01 1.20880529e-01 9.86273736e-02 0. 8.58225524e-01
      6.37121573e-02 2.67625004e-02 0. 2.44821787e-01 1.48291618e-01
      1.17075309e-01 0. 9.14501026e-02 1.58998802e-01 9.74987000e-02 0.
      2.66135126e-01 4.40646894e-02 2.42412407e-02 0. 3.00412118e-01
      2.67051399e-01 2.34909773e-01 0. 2.61032671e-01 8.95920694e-02
      5.16797975e-02 0. 4.30457145e-01 1.15242407e-01 7.96104223e-02 0.
      1.91257790e-01 2.99772561e-01 2.40098849e-01 0. 6.39726579e-01
      1.24334291e-01 7.60999992e-02 0. 9.17292982e-02 3.36925775e-01
      2.46913821e-01 0. 2.47853905e-01 1.25291526e-01 1.12326793e-01 0.
      3.90116662e-01 5.62484376e-02 5.29097281e-02 0. 2.15312496e-01
      1.08061329e-01 9.73498821e-02 0. 1.63153797e-01 1.14848971e-01
      6.43468276e-02 0. 4.77923930e-01 4.46336195e-02 2.60393266e-02 0.
      6.64596260e-02 1.87541664e-01 1.07424907e-01 0. 2.90492952e-01
      2.16063544e-01 1.19480029e-01 0. 2.08020613e-01 1.01827040e-01
      6.65985346e-02 0. 1.61774740e-01 1.13211900e-01 2.73915920e-02 0.
      1.16301417e-01 1.63926929e-01 7.47764707e-02 0. 4.64660645e-01
      1.64595291e-01 1.03460252e-01 0. 3.63388151e-01 8.81205425e-02
      8.44186544e-02 0. 1.33615643e-01 3.10790092e-01 2.26261303e-01 0.
      4.47854064e-02 1.77398071e-01 1.03895672e-01 0. 2.70697176e-01
      9.97733846e-02 5.51686287e-02 0. 8.15135166e-02 4.04855847e-01
      3.16458881e-01 0. 4.13406819e-01 1.86522126e-01 1.29614949e-01 0.
      2.17989087e-01 7.87362456e-02 3.91472504e-02 0. 8.80417973e-02
      1.42654657e-01 1.13860279e-01 0. 1.03923991e-01 1.26796797e-01
      6.82794377e-02 0. 4.37889509e-02 1.82465017e-01 9.52197984e-02 0.
      7.51758814e-02 3.19109440e-01 2.04907537e-01 0. 1.11879699e-01
      1.79878056e-01 1.20655254e-01 0. 1.71233878e-01 1.55618295e-01
      1.25610456e-01 0. 3.15705121e-01 9.65304896e-02 8.35999995e-02 0.
      6.17222548e-01 7.42756650e-02 4.63450998e-02 0. 4.43831712e-01
      3.98492478e-02 3.04262619e-02 0. 3.37422699e-01 2.05033481e-01
      1.26211628e-01 0. 2.79552281e-01 2.12073937e-01 9.32422206e-02 0.
      4.84306931e-01 1.10812120e-01 5.38376831e-02 0. 2.86458343e-01
      9.50210467e-02 5.86000010e-02 0. 1.34307459e-01 1.31358355e-01
      7.18613043e-02 0. 8.07113647e-01 7.59200454e-02 5.09812497e-02 0.
      5.52419126e-02 1.71778098e-01 1.05858877e-01 0. 1.20164849e-01
      3.20069939e-01 2.34909773e-01 0. 2.69411147e-01 1.27566993e-01
      1.15777329e-01 0. 5.39724529e-01 1.36775196e-01 6.36896715e-02 0.
      1.72743067e-01 8.55342299e-02 2.58113462e-02 0. 9.02453288e-02
      3.33951771e-01 2.40963697e-01 0. 1.53743237e-01 7.49544948e-02
      2.04064455e-02 0. 2.45460704e-01 1.40977278e-01 1.10592000e-01 0.
      1.04754552e-01 1.21621147e-01 3.45328227e-02 0. 3.85937512e-01
      7.34844059e-02 6.73991442e-02 0. 1.38266265e-01 1.26050621e-01
      5.71255088e-02 0. 7.28084445e-02 1.58125743e-01 7.57164583e-02 0.
      6.25895321e-01 7.23253116e-02 4.26909104e-02 0. 3.81926596e-01
      1.45807326e-01 3.06979269e-02 0. 4.14672852e-01 1.82535246e-01
      1.19711243e-01 0. 1.32199556e-01 1.30867735e-01 7.19214976e-02 0.
      2.00139627e-01 9.62619707e-02 2.54999083e-02 0. 1.91710427e-01
      2.43932739e-01 1.17732741e-01 0. 1.21908881e-01 1.36526883e-01
      7.09068775e-02 0. 4.35502887e-01 3.87660116e-02 3.14482376e-02 0.
      1.16336301e-01 1.65129900e-01 8.72529894e-02 0. 3.16483676e-01
      4.74075563e-02 3.13131437e-02 0. 2.63438970e-01 2.22055361e-01
      1.14277221e-01 0. 1.00293078e-01 1.85464874e-01 1.16233118e-01 0.
      2.14125097e-01 1.89037472e-01 4.89073545e-02 0. 4.15613651e-01
      3.60245258e-02 3.29812020e-02 0. 1.39518425e-01 3.01451653e-01
      2.12423742e-01 0. 1.40246764e-01 1.99867323e-01 8.59434754e-02 0.
      2.52441406e-01 1.07097909e-01 5.86000010e-02 0. 1.78336829e-01
      1.00874282e-01 5.54641970e-02 0. 1.87338799e-01 1.30699590e-01
      1.09668978e-01 0. 1.71599999e-01 2.78153926e-01 1.87488675e-01 0.
      1.60752341e-01 1.20626010e-01 8.01892951e-02 0. 3.11628789e-01
      1.13066621e-01 5.28154373e-02 0. 6.48856759e-01 7.31189996e-02
      3.72363627e-02 0. 1.68957368e-01 8.51164386e-02 2.24067532e-02 0.
      1.93305805e-01 1.31889105e-01 9.73956361e-02 0. 2.40894377e-01
      1.03217483e-01 7.40885288e-02 0. 1.40921220e-01 1.23749264e-01
      4.93324697e-02 0. 1.44709542e-01 1.22822776e-01 6.13495708e-02 0.
      1.00018233e-01 1.70909867e-01 8.35996121e-02 0. 2.30103806e-01
      1.40218705e-01 1.21835291e-01 0. 2.09368840e-01 2.09172457e-01
      1.02876917e-01 0. 1.64194852e-01 1.12030923e-01 3.87417004e-02 0.
      1.30839199e-01 3.11382800e-01 2.26137713e-01 0. 1.80509835e-01
      9.90492627e-02 8.31057578e-02 0. 1.43405050e-01 1.20648853e-01
      4.67778742e-02 0. 1.25791326e-01 1.74726427e-01 1.16233118e-01 0.
      4.50531006e-01 1.67501986e-01 1.01293460e-01 0. 1.31154746e-01
      1.46076381e-01 1.01229370e-01 0. 1.26350001e-01 1.60871103e-01
      3.39411236e-02 0. 1.31231725e-01 1.32799834e-01 7.18613043e-02 0.
      1.63667843e-01 1.14422582e-01 5.96762784e-02 0. 1.30108103e-01
      3.80219668e-01 2.99777299e-01 0. 1.08148359e-01 3.24201137e-01
      2.34909773e-01 0. 1.32930934e-01 3.13375205e-01 2.30585530e-01 0.
      5.80751956e-01 1.27337277e-01 9.17249992e-02 0. 4.38535541e-01
      7.35293701e-02 7.35016242e-02 0. 4.17181820e-01 9.87648740e-02
      7.30751604e-02 0.</data></samples>
  <responses type_id="opencv-matrix">
    <rows>163</rows>
    <cols>1</cols>
    <dt>f</dt>
    <data>
      1. 1. 1. 1. 0. 1. 0. 0. 1. 1. 1. 1. 0. 0. 0. 1. 0. 0. 0. 0. 0. 1.
      0. 0. 0. 0. 0. 0. 0. 0. 1. 0. 1. 1. 0. 0. 0. 1. 0. 0. 0. 0. 1. 1.
      0. 0. 1. 0. 0. 0. 1. 1. 0. 0. 0. 0. 1. 0. 0. 0. 0. 0. 1. 0. 1. 0.
      1. 0. 0. 0. 0. 0. 1. 1. 1. 0. 0. 1. 1. 1. 0. 0. 0. 0. 0. 1. 0. 1.
      1. 0. 0. 0. 0. 1. 0. 0. 0. 0. 1. 1. 0. 1. 1. 0. 0. 0. 0. 0. 0. 0.
      0. 1. 1. 0. 0. 1. 0. 1. 0. 1. 1. 1. 0. 0. 0. 0. 1. 0. 0. 0. 0. 0.
      1. 0. 0. 0. 0. 1. 0. 0. 0. 1. 0. 0. 0. 1. 0. 1. 0. 0. 0. 0. 0. 0.
      0. 1. 1. 0. 0. 0. 0. 0. 0.</data></responses></opencv_ml_knn>
</opencv_storage>
